digraph Tree {
node [shape=box] ;
0 [label="X[84] <= 0.447\nmse = 6208271071.287\nsamples = 1095\nvalue = 180733.15"] ;
1 [label="X[82] <= 0.046\nmse = 2444600754.23\nsamples = 666\nvalue = 144343.005"] ;
0 -> 1 [labeldistance=2.5, labelangle=45, headlabel="True"] ;
2 [label="X[54] <= 0.5\nmse = 1267462751.457\nsamples = 489\nvalue = 130169.372"] ;
1 -> 2 ;
3 [label="X[45] <= 0.5\nmse = 984429446.444\nsamples = 411\nvalue = 125217.513"] ;
2 -> 3 ;
4 [label="X[90] <= -0.166\nmse = 776069743.438\nsamples = 346\nvalue = 130311.243"] ;
3 -> 4 ;
5 [label="X[89] <= -0.647\nmse = 646662486.382\nsamples = 228\nvalue = 123464.781"] ;
4 -> 5 ;
6 [label="X[91] <= -0.36\nmse = 479842653.222\nsamples = 101\nvalue = 115051.366"] ;
5 -> 6 ;
7 [label="X[83] <= -0.958\nmse = 435211956.879\nsamples = 68\nvalue = 108563.059"] ;
6 -> 7 ;
8 [label="X[66] <= 0.5\nmse = 209312500.0\nsamples = 8\nvalue = 87500.0"] ;
7 -> 8 ;
9 [label="X[89] <= -1.261\nmse = 97600000.0\nsamples = 5\nvalue = 79000.0"] ;
8 -> 9 ;
10 [label="X[33] <= 0.5\nmse = 2250000.0\nsamples = 2\nvalue = 83500.0"] ;
9 -> 10 ;
11 [label="mse = 0.0\nsamples = 1\nvalue = 82000.0"] ;
10 -> 11 ;
12 [label="mse = 0.0\nsamples = 1\nvalue = 85000.0"] ;
10 -> 12 ;
13 [label="X[30] <= 0.5\nmse = 138666666.667\nsamples = 3\nvalue = 76000.0"] ;
9 -> 13 ;
14 [label="X[93] <= 0.083\nmse = 16000000.0\nsamples = 2\nvalue = 84000.0"] ;
13 -> 14 ;
15 [label="mse = 0.0\nsamples = 1\nvalue = 88000.0"] ;
14 -> 15 ;
16 [label="mse = 0.0\nsamples = 1\nvalue = 80000.0"] ;
14 -> 16 ;
17 [label="mse = 0.0\nsamples = 1\nvalue = 60000.0"] ;
13 -> 17 ;
18 [label="X[84] <= -0.083\nmse = 74388888.889\nsamples = 3\nvalue = 101666.667"] ;
8 -> 18 ;
19 [label="X[93] <= 1.003\nmse = 562500.0\nsamples = 2\nvalue = 107750.0"] ;
18 -> 19 ;
20 [label="mse = 0.0\nsamples = 1\nvalue = 108500.0"] ;
19 -> 20 ;
21 [label="mse = 0.0\nsamples = 1\nvalue = 107000.0"] ;
19 -> 21 ;
22 [label="mse = 0.0\nsamples = 1\nvalue = 89500.0"] ;
18 -> 22 ;
23 [label="X[83] <= 0.836\nmse = 398291070.249\nsamples = 60\nvalue = 111371.467"] ;
7 -> 23 ;
24 [label="X[84] <= -0.729\nmse = 414663217.639\nsamples = 36\nvalue = 106853.833"] ;
23 -> 24 ;
25 [label="X[91] <= -1.724\nmse = 443390409.877\nsamples = 9\nvalue = 86608.889"] ;
24 -> 25 ;
26 [label="mse = 0.0\nsamples = 1\nvalue = 52000.0"] ;
25 -> 26 ;
27 [label="X[87] <= -0.487\nmse = 330377075.0\nsamples = 8\nvalue = 90935.0"] ;
25 -> 27 ;
28 [label="X[16] <= 0.5\nmse = 183086464.0\nsamples = 5\nvalue = 99296.0"] ;
27 -> 28 ;
29 [label="X[93] <= 0.083\nmse = 170170700.0\nsamples = 4\nvalue = 95870.0"] ;
28 -> 29 ;
30 [label="X[66] <= 0.5\nmse = 9000000.0\nsamples = 2\nvalue = 83000.0"] ;
29 -> 30 ;
31 [label="mse = 0.0\nsamples = 1\nvalue = 80000.0"] ;
30 -> 31 ;
32 [label="mse = 0.0\nsamples = 1\nvalue = 86000.0"] ;
30 -> 32 ;
33 [label="X[5] <= 0.5\nmse = 67600.0\nsamples = 2\nvalue = 108740.0"] ;
29 -> 33 ;
34 [label="mse = 0.0\nsamples = 1\nvalue = 108480.0"] ;
33 -> 34 ;
35 [label="mse = 0.0\nsamples = 1\nvalue = 109000.0"] ;
33 -> 35 ;
36 [label="mse = 0.0\nsamples = 1\nvalue = 113000.0"] ;
28 -> 36 ;
37 [label="X[7] <= 0.5\nmse = 265166666.667\nsamples = 3\nvalue = 77000.0"] ;
27 -> 37 ;
38 [label="X[94] <= 0.128\nmse = 280562500.0\nsamples = 2\nvalue = 83250.0"] ;
37 -> 38 ;
39 [label="mse = 0.0\nsamples = 1\nvalue = 100000.0"] ;
38 -> 39 ;
40 [label="mse = 0.0\nsamples = 1\nvalue = 66500.0"] ;
38 -> 40 ;
41 [label="mse = 0.0\nsamples = 1\nvalue = 64500.0"] ;
37 -> 41 ;
42 [label="X[82] <= -0.478\nmse = 222928475.534\nsamples = 27\nvalue = 113602.148"] ;
24 -> 42 ;
43 [label="X[89] <= -1.875\nmse = 110593600.0\nsamples = 5\nvalue = 89420.0"] ;
42 -> 43 ;
44 [label="mse = 0.0\nsamples = 1\nvalue = 75500.0"] ;
43 -> 44 ;
45 [label="X[62] <= 0.5\nmse = 77690000.0\nsamples = 4\nvalue = 92900.0"] ;
43 -> 45 ;
46 [label="X[33] <= 0.5\nmse = 56435555.556\nsamples = 3\nvalue = 89466.667"] ;
45 -> 46 ;
47 [label="mse = 0.0\nsamples = 1\nvalue = 83000.0"] ;
46 -> 47 ;
48 [label="X[89] <= -1.261\nmse = 53290000.0\nsamples = 2\nvalue = 92700.0"] ;
46 -> 48 ;
49 [label="mse = 0.0\nsamples = 1\nvalue = 85400.0"] ;
48 -> 49 ;
50 [label="mse = 0.0\nsamples = 1\nvalue = 100000.0"] ;
48 -> 50 ;
51 [label="mse = 0.0\nsamples = 1\nvalue = 103200.0"] ;
45 -> 51 ;
52 [label="X[93] <= 0.819\nmse = 85350040.174\nsamples = 22\nvalue = 119098.091"] ;
42 -> 52 ;
53 [label="X[94] <= 1.248\nmse = 72997157.816\nsamples = 14\nvalue = 116368.429"] ;
52 -> 53 ;
54 [label="X[93] <= -0.652\nmse = 74899040.306\nsamples = 12\nvalue = 115179.833"] ;
53 -> 54 ;
55 [label="X[26] <= 0.5\nmse = 222222.222\nsamples = 3\nvalue = 110333.333"] ;
54 -> 55 ;
56 [label="mse = 0.0\nsamples = 2\nvalue = 110000.0"] ;
55 -> 56 ;
57 [label="mse = 0.0\nsamples = 1\nvalue = 111000.0"] ;
55 -> 57 ;
58 [label="X[82] <= -0.14\nmse = 89351952.0\nsamples = 9\nvalue = 116795.333"] ;
54 -> 58 ;
59 [label="X[84] <= -0.149\nmse = 54755844.571\nsamples = 7\nvalue = 113144.0"] ;
58 -> 59 ;
60 [label="X[68] <= 0.5\nmse = 29516330.24\nsamples = 5\nvalue = 116401.6"] ;
59 -> 60 ;
61 [label="X[14] <= 0.5\nmse = 13791512.0\nsamples = 4\nvalue = 114252.0"] ;
60 -> 61 ;
62 [label="X[47] <= 0.5\nmse = 3048516.0\nsamples = 2\nvalue = 110754.0"] ;
61 -> 62 ;
63 [label="mse = 0.0\nsamples = 1\nvalue = 109008.0"] ;
62 -> 63 ;
64 [label="mse = 0.0\nsamples = 1\nvalue = 112500.0"] ;
62 -> 64 ;
65 [label="X[44] <= 0.5\nmse = 62500.0\nsamples = 2\nvalue = 117750.0"] ;
61 -> 65 ;
66 [label="mse = 0.0\nsamples = 1\nvalue = 117500.0"] ;
65 -> 66 ;
67 [label="mse = 0.0\nsamples = 1\nvalue = 118000.0"] ;
65 -> 67 ;
68 [label="mse = 0.0\nsamples = 1\nvalue = 125000.0"] ;
60 -> 68 ;
69 [label="X[68] <= 0.5\nmse = 25000000.0\nsamples = 2\nvalue = 105000.0"] ;
59 -> 69 ;
70 [label="mse = 0.0\nsamples = 1\nvalue = 110000.0"] ;
69 -> 70 ;
71 [label="mse = 0.0\nsamples = 1\nvalue = 100000.0"] ;
69 -> 71 ;
72 [label="X[84] <= -0.182\nmse = 455625.0\nsamples = 2\nvalue = 129575.0"] ;
58 -> 72 ;
73 [label="mse = 0.0\nsamples = 1\nvalue = 128900.0"] ;
72 -> 73 ;
74 [label="mse = 0.0\nsamples = 1\nvalue = 130250.0"] ;
72 -> 74 ;
75 [label="X[4] <= 0.5\nmse = 2250000.0\nsamples = 2\nvalue = 123500.0"] ;
53 -> 75 ;
76 [label="mse = 0.0\nsamples = 1\nvalue = 122000.0"] ;
75 -> 76 ;
77 [label="mse = 0.0\nsamples = 1\nvalue = 125000.0"] ;
75 -> 77 ;
78 [label="X[44] <= 0.5\nmse = 71109375.0\nsamples = 8\nvalue = 123875.0"] ;
52 -> 78 ;
79 [label="X[42] <= 0.5\nmse = 30250000.0\nsamples = 2\nvalue = 133000.0"] ;
78 -> 79 ;
80 [label="mse = 0.0\nsamples = 1\nvalue = 127500.0"] ;
79 -> 80 ;
81 [label="mse = 0.0\nsamples = 1\nvalue = 138500.0"] ;
79 -> 81 ;
82 [label="X[84] <= -0.133\nmse = 47722222.222\nsamples = 6\nvalue = 120833.333"] ;
78 -> 82 ;
83 [label="X[68] <= 0.5\nmse = 28666666.667\nsamples = 3\nvalue = 116000.0"] ;
82 -> 83 ;
84 [label="X[80] <= 0.5\nmse = 16000000.0\nsamples = 2\nvalue = 119000.0"] ;
83 -> 84 ;
85 [label="mse = 0.0\nsamples = 1\nvalue = 123000.0"] ;
84 -> 85 ;
86 [label="mse = 0.0\nsamples = 1\nvalue = 115000.0"] ;
84 -> 86 ;
87 [label="mse = 0.0\nsamples = 1\nvalue = 110000.0"] ;
83 -> 87 ;
88 [label="X[84] <= 0.281\nmse = 20055555.556\nsamples = 3\nvalue = 125666.667"] ;
82 -> 88 ;
89 [label="X[33] <= 0.5\nmse = 1562500.0\nsamples = 2\nvalue = 128750.0"] ;
88 -> 89 ;
90 [label="mse = 0.0\nsamples = 1\nvalue = 127500.0"] ;
89 -> 90 ;
91 [label="mse = 0.0\nsamples = 1\nvalue = 130000.0"] ;
89 -> 91 ;
92 [label="mse = 0.0\nsamples = 1\nvalue = 119500.0"] ;
88 -> 92 ;
93 [label="X[84] <= -1.54\nmse = 297199058.16\nsamples = 24\nvalue = 118147.917"] ;
23 -> 93 ;
94 [label="X[80] <= 0.5\nmse = 351171875.0\nsamples = 4\nvalue = 97625.0"] ;
93 -> 94 ;
95 [label="mse = 0.0\nsamples = 1\nvalue = 130000.0"] ;
94 -> 95 ;
96 [label="X[91] <= -1.724\nmse = 2388888.889\nsamples = 3\nvalue = 86833.333"] ;
94 -> 96 ;
97 [label="X[24] <= 0.5\nmse = 62500.0\nsamples = 2\nvalue = 85750.0"] ;
96 -> 97 ;
98 [label="mse = 0.0\nsamples = 1\nvalue = 85500.0"] ;
97 -> 98 ;
99 [label="mse = 0.0\nsamples = 1\nvalue = 86000.0"] ;
97 -> 99 ;
100 [label="mse = 0.0\nsamples = 1\nvalue = 89000.0"] ;
96 -> 100 ;
101 [label="X[3] <= 0.5\nmse = 185318868.75\nsamples = 20\nvalue = 122252.5"] ;
93 -> 101 ;
102 [label="X[84] <= -0.646\nmse = 144368130.194\nsamples = 19\nvalue = 123844.737"] ;
101 -> 102 ;
103 [label="X[84] <= -0.928\nmse = 35311428.571\nsamples = 7\nvalue = 115300.0"] ;
102 -> 103 ;
104 [label="X[82] <= -0.447\nmse = 36800000.0\nsamples = 5\nvalue = 113500.0"] ;
103 -> 104 ;
105 [label="X[25] <= 0.5\nmse = 5388888.889\nsamples = 3\nvalue = 118166.667"] ;
104 -> 105 ;
106 [label="X[82] <= -0.458\nmse = 562500.0\nsamples = 2\nvalue = 119750.0"] ;
105 -> 106 ;
107 [label="mse = 0.0\nsamples = 1\nvalue = 120500.0"] ;
106 -> 107 ;
108 [label="mse = 0.0\nsamples = 1\nvalue = 119000.0"] ;
106 -> 108 ;
109 [label="mse = 0.0\nsamples = 1\nvalue = 115000.0"] ;
105 -> 109 ;
110 [label="X[89] <= -1.261\nmse = 2250000.0\nsamples = 2\nvalue = 106500.0"] ;
104 -> 110 ;
111 [label="mse = 0.0\nsamples = 1\nvalue = 108000.0"] ;
110 -> 111 ;
112 [label="mse = 0.0\nsamples = 1\nvalue = 105000.0"] ;
110 -> 112 ;
113 [label="X[40] <= 0.5\nmse = 3240000.0\nsamples = 2\nvalue = 119800.0"] ;
103 -> 113 ;
114 [label="mse = 0.0\nsamples = 1\nvalue = 121600.0"] ;
113 -> 114 ;
115 [label="mse = 0.0\nsamples = 1\nvalue = 118000.0"] ;
113 -> 115 ;
116 [label="X[27] <= 0.5\nmse = 140549357.639\nsamples = 12\nvalue = 128829.167"] ;
102 -> 116 ;
117 [label="X[21] <= 0.5\nmse = 103879462.81\nsamples = 11\nvalue = 130859.091"] ;
116 -> 117 ;
118 [label="X[82] <= -0.215\nmse = 21147448.98\nsamples = 7\nvalue = 127292.857"] ;
117 -> 118 ;
119 [label="X[81] <= 0.5\nmse = 10764722.222\nsamples = 6\nvalue = 125883.333"] ;
118 -> 119 ;
120 [label="X[84] <= -0.216\nmse = 4610400.0\nsamples = 5\nvalue = 127060.0"] ;
119 -> 120 ;
121 [label="X[89] <= -1.261\nmse = 202500.0\nsamples = 2\nvalue = 129450.0"] ;
120 -> 121 ;
122 [label="mse = 0.0\nsamples = 1\nvalue = 129000.0"] ;
121 -> 122 ;
123 [label="mse = 0.0\nsamples = 1\nvalue = 129900.0"] ;
121 -> 123 ;
124 [label="X[66] <= 0.5\nmse = 1202222.222\nsamples = 3\nvalue = 125466.667"] ;
120 -> 124 ;
125 [label="mse = 0.0\nsamples = 1\nvalue = 124500.0"] ;
124 -> 125 ;
126 [label="X[93] <= -1.203\nmse = 1102500.0\nsamples = 2\nvalue = 125950.0"] ;
124 -> 126 ;
127 [label="mse = 0.0\nsamples = 1\nvalue = 124900.0"] ;
126 -> 127 ;
128 [label="mse = 0.0\nsamples = 1\nvalue = 127000.0"] ;
126 -> 128 ;
129 [label="mse = 0.0\nsamples = 1\nvalue = 120000.0"] ;
119 -> 129 ;
130 [label="mse = 0.0\nsamples = 1\nvalue = 135750.0"] ;
118 -> 130 ;
131 [label="X[42] <= 0.5\nmse = 187455000.0\nsamples = 4\nvalue = 137100.0"] ;
117 -> 131 ;
132 [label="X[62] <= 0.5\nmse = 16000000.0\nsamples = 2\nvalue = 149000.0"] ;
131 -> 132 ;
133 [label="mse = 0.0\nsamples = 1\nvalue = 153000.0"] ;
132 -> 133 ;
134 [label="mse = 0.0\nsamples = 1\nvalue = 145000.0"] ;
132 -> 134 ;
135 [label="X[94] <= 1.248\nmse = 75690000.0\nsamples = 2\nvalue = 125200.0"] ;
131 -> 135 ;
136 [label="mse = 0.0\nsamples = 1\nvalue = 133900.0"] ;
135 -> 136 ;
137 [label="mse = 0.0\nsamples = 1\nvalue = 116500.0"] ;
135 -> 137 ;
138 [label="mse = 0.0\nsamples = 1\nvalue = 106500.0"] ;
116 -> 138 ;
139 [label="mse = 0.0\nsamples = 1\nvalue = 92000.0"] ;
101 -> 139 ;
140 [label="X[62] <= 0.5\nmse = 306308489.44\nsamples = 33\nvalue = 128421.212"] ;
6 -> 140 ;
141 [label="X[26] <= 0.5\nmse = 315256838.134\nsamples = 27\nvalue = 126153.704"] ;
140 -> 141 ;
142 [label="X[51] <= 0.5\nmse = 224858290.289\nsamples = 22\nvalue = 129897.727"] ;
141 -> 142 ;
143 [label="X[24] <= 0.5\nmse = 119565000.0\nsamples = 4\nvalue = 113700.0"] ;
142 -> 143 ;
144 [label="X[82] <= -0.501\nmse = 10580000.0\nsamples = 3\nvalue = 107600.0"] ;
143 -> 144 ;
145 [label="mse = 0.0\nsamples = 1\nvalue = 109900.0"] ;
144 -> 145 ;
146 [label="X[27] <= 0.5\nmse = 11902500.0\nsamples = 2\nvalue = 106450.0"] ;
144 -> 146 ;
147 [label="mse = 0.0\nsamples = 1\nvalue = 103000.0"] ;
146 -> 147 ;
148 [label="mse = 0.0\nsamples = 1\nvalue = 109900.0"] ;
146 -> 148 ;
149 [label="mse = 0.0\nsamples = 1\nvalue = 132000.0"] ;
143 -> 149 ;
150 [label="X[80] <= 0.5\nmse = 176996797.84\nsamples = 18\nvalue = 133497.222"] ;
142 -> 150 ;
151 [label="X[79] <= 0.5\nmse = 22562500.0\nsamples = 2\nvalue = 148750.0"] ;
150 -> 151 ;
152 [label="mse = 0.0\nsamples = 1\nvalue = 144000.0"] ;
151 -> 152 ;
153 [label="mse = 0.0\nsamples = 1\nvalue = 153500.0"] ;
151 -> 153 ;
154 [label="X[40] <= 0.5\nmse = 163585068.359\nsamples = 16\nvalue = 131590.625"] ;
150 -> 154 ;
155 [label="X[94] <= -0.246\nmse = 150484145.408\nsamples = 14\nvalue = 133282.143"] ;
154 -> 155 ;
156 [label="X[14] <= 0.5\nmse = 193094791.667\nsamples = 6\nvalue = 125025.0"] ;
155 -> 156 ;
157 [label="X[82] <= -0.222\nmse = 135541666.667\nsamples = 3\nvalue = 130250.0"] ;
156 -> 157 ;
158 [label="mse = 0.0\nsamples = 1\nvalue = 115000.0"] ;
157 -> 158 ;
159 [label="X[82] <= -0.104\nmse = 28890625.0\nsamples = 2\nvalue = 137875.0"] ;
157 -> 159 ;
160 [label="mse = 0.0\nsamples = 1\nvalue = 132500.0"] ;
159 -> 160 ;
161 [label="mse = 0.0\nsamples = 1\nvalue = 143250.0"] ;
159 -> 161 ;
162 [label="X[82] <= -0.173\nmse = 196046666.667\nsamples = 3\nvalue = 119800.0"] ;
156 -> 162 ;
163 [label="X[84] <= -0.613\nmse = 217562500.0\nsamples = 2\nvalue = 114750.0"] ;
162 -> 163 ;
164 [label="mse = 0.0\nsamples = 1\nvalue = 100000.0"] ;
163 -> 164 ;
165 [label="mse = 0.0\nsamples = 1\nvalue = 129500.0"] ;
163 -> 165 ;
166 [label="mse = 0.0\nsamples = 1\nvalue = 129900.0"] ;
162 -> 166 ;
167 [label="X[87] <= -0.487\nmse = 29039375.0\nsamples = 8\nvalue = 139475.0"] ;
155 -> 167 ;
168 [label="X[89] <= -1.261\nmse = 4226400.0\nsamples = 5\nvalue = 135760.0"] ;
167 -> 168 ;
169 [label="X[5] <= 0.5\nmse = 2802222.222\nsamples = 3\nvalue = 136966.667"] ;
168 -> 169 ;
170 [label="X[83] <= 0.836\nmse = 1000000.0\nsamples = 2\nvalue = 138000.0"] ;
169 -> 170 ;
171 [label="mse = 0.0\nsamples = 1\nvalue = 137000.0"] ;
170 -> 171 ;
172 [label="mse = 0.0\nsamples = 1\nvalue = 139000.0"] ;
170 -> 172 ;
173 [label="mse = 0.0\nsamples = 1\nvalue = 134900.0"] ;
169 -> 173 ;
174 [label="X[83] <= 0.388\nmse = 902500.0\nsamples = 2\nvalue = 133950.0"] ;
168 -> 174 ;
175 [label="mse = 0.0\nsamples = 1\nvalue = 134900.0"] ;
174 -> 175 ;
176 [label="mse = 0.0\nsamples = 1\nvalue = 133000.0"] ;
174 -> 176 ;
177 [label="X[93] <= -0.1\nmse = 9055555.556\nsamples = 3\nvalue = 145666.667"] ;
167 -> 177 ;
178 [label="mse = 0.0\nsamples = 1\nvalue = 141500.0"] ;
177 -> 178 ;
179 [label="X[12] <= 0.5\nmse = 562500.0\nsamples = 2\nvalue = 147750.0"] ;
177 -> 179 ;
180 [label="mse = 0.0\nsamples = 1\nvalue = 148500.0"] ;
179 -> 180 ;
181 [label="mse = 0.0\nsamples = 1\nvalue = 147000.0"] ;
179 -> 181 ;
182 [label="X[82] <= -0.22\nmse = 95062500.0\nsamples = 2\nvalue = 119750.0"] ;
154 -> 182 ;
183 [label="mse = 0.0\nsamples = 1\nvalue = 129500.0"] ;
182 -> 183 ;
184 [label="mse = 0.0\nsamples = 1\nvalue = 110000.0"] ;
182 -> 184 ;
185 [label="X[84] <= -0.745\nmse = 379949600.0\nsamples = 5\nvalue = 109680.0"] ;
141 -> 185 ;
186 [label="X[94] <= -0.246\nmse = 156668888.889\nsamples = 3\nvalue = 96633.333"] ;
185 -> 186 ;
187 [label="mse = 0.0\nsamples = 1\nvalue = 79900.0"] ;
186 -> 187 ;
188 [label="X[55] <= 0.5\nmse = 25000000.0\nsamples = 2\nvalue = 105000.0"] ;
186 -> 188 ;
189 [label="mse = 0.0\nsamples = 1\nvalue = 100000.0"] ;
188 -> 189 ;
190 [label="mse = 0.0\nsamples = 1\nvalue = 110000.0"] ;
188 -> 190 ;
191 [label="X[31] <= 0.5\nmse = 76562500.0\nsamples = 2\nvalue = 129250.0"] ;
185 -> 191 ;
192 [label="mse = 0.0\nsamples = 1\nvalue = 120500.0"] ;
191 -> 192 ;
193 [label="mse = 0.0\nsamples = 1\nvalue = 138000.0"] ;
191 -> 193 ;
194 [label="X[84] <= -0.083\nmse = 138786458.333\nsamples = 6\nvalue = 138625.0"] ;
140 -> 194 ;
195 [label="mse = 0.0\nsamples = 1\nvalue = 160000.0"] ;
194 -> 195 ;
196 [label="X[0] <= 0.5\nmse = 56890000.0\nsamples = 5\nvalue = 134350.0"] ;
194 -> 196 ;
197 [label="X[83] <= -0.061\nmse = 12847222.222\nsamples = 3\nvalue = 139583.333"] ;
196 -> 197 ;
198 [label="mse = 0.0\nsamples = 1\nvalue = 135000.0"] ;
197 -> 198 ;
199 [label="X[84] <= 0.182\nmse = 3515625.0\nsamples = 2\nvalue = 141875.0"] ;
197 -> 199 ;
200 [label="mse = 0.0\nsamples = 1\nvalue = 143750.0"] ;
199 -> 200 ;
201 [label="mse = 0.0\nsamples = 1\nvalue = 140000.0"] ;
199 -> 201 ;
202 [label="X[94] <= -0.993\nmse = 20250000.0\nsamples = 2\nvalue = 126500.0"] ;
196 -> 202 ;
203 [label="mse = 0.0\nsamples = 1\nvalue = 131000.0"] ;
202 -> 203 ;
204 [label="mse = 0.0\nsamples = 1\nvalue = 122000.0"] ;
202 -> 204 ;
205 [label="X[87] <= -0.487\nmse = 678266960.023\nsamples = 127\nvalue = 130155.764"] ;
5 -> 205 ;
206 [label="X[83] <= -0.958\nmse = 487090244.787\nsamples = 19\nvalue = 109825.053"] ;
205 -> 206 ;
207 [label="X[79] <= 0.5\nmse = 212506666.667\nsamples = 3\nvalue = 78000.0"] ;
206 -> 207 ;
208 [label="X[33] <= 0.5\nmse = 490000.0\nsamples = 2\nvalue = 67700.0"] ;
207 -> 208 ;
209 [label="mse = 0.0\nsamples = 1\nvalue = 67000.0"] ;
208 -> 209 ;
210 [label="mse = 0.0\nsamples = 1\nvalue = 68400.0"] ;
208 -> 210 ;
211 [label="mse = 0.0\nsamples = 1\nvalue = 98600.0"] ;
207 -> 211 ;
212 [label="X[25] <= 0.5\nmse = 313060850.938\nsamples = 16\nvalue = 115792.25"] ;
206 -> 212 ;
213 [label="X[80] <= 0.5\nmse = 113173123.556\nsamples = 9\nvalue = 107330.667"] ;
212 -> 213 ;
214 [label="mse = 0.0\nsamples = 1\nvalue = 124900.0"] ;
213 -> 214 ;
215 [label="X[41] <= 0.5\nmse = 83911431.75\nsamples = 8\nvalue = 105134.5"] ;
213 -> 215 ;
216 [label="X[7] <= 0.5\nmse = 40830764.408\nsamples = 7\nvalue = 102510.857"] ;
215 -> 216 ;
217 [label="X[62] <= 0.5\nmse = 15151408.0\nsamples = 4\nvalue = 106444.0"] ;
216 -> 217 ;
218 [label="X[28] <= 0.5\nmse = 1099150.222\nsamples = 3\nvalue = 104258.667"] ;
217 -> 218 ;
219 [label="mse = 0.0\nsamples = 2\nvalue = 105000.0"] ;
218 -> 219 ;
220 [label="mse = 0.0\nsamples = 1\nvalue = 102776.0"] ;
218 -> 220 ;
221 [label="mse = 0.0\nsamples = 1\nvalue = 113000.0"] ;
217 -> 221 ;
222 [label="X[84] <= -0.216\nmse = 26942222.222\nsamples = 3\nvalue = 97266.667"] ;
216 -> 222 ;
223 [label="X[2] <= 0.5\nmse = 810000.0\nsamples = 2\nvalue = 100900.0"] ;
222 -> 223 ;
224 [label="mse = 0.0\nsamples = 1\nvalue = 100000.0"] ;
223 -> 224 ;
225 [label="mse = 0.0\nsamples = 1\nvalue = 101800.0"] ;
223 -> 225 ;
226 [label="mse = 0.0\nsamples = 1\nvalue = 90000.0"] ;
222 -> 226 ;
227 [label="mse = 0.0\nsamples = 1\nvalue = 123500.0"] ;
215 -> 227 ;
228 [label="X[84] <= -1.06\nmse = 359647755.102\nsamples = 7\nvalue = 126671.429"] ;
212 -> 228 ;
229 [label="mse = 0.0\nsamples = 1\nvalue = 87000.0"] ;
228 -> 229 ;
230 [label="X[47] <= 0.5\nmse = 113568055.556\nsamples = 6\nvalue = 133283.333"] ;
228 -> 230 ;
231 [label="X[5] <= 0.5\nmse = 71600000.0\nsamples = 5\nvalue = 130000.0"] ;
230 -> 231 ;
232 [label="X[84] <= -0.083\nmse = 64222222.222\nsamples = 3\nvalue = 134333.333"] ;
231 -> 232 ;
233 [label="mse = 0.0\nsamples = 2\nvalue = 140000.0"] ;
232 -> 233 ;
234 [label="mse = 0.0\nsamples = 1\nvalue = 123000.0"] ;
232 -> 234 ;
235 [label="X[82] <= -0.322\nmse = 12250000.0\nsamples = 2\nvalue = 123500.0"] ;
231 -> 235 ;
236 [label="mse = 0.0\nsamples = 1\nvalue = 120000.0"] ;
235 -> 236 ;
237 [label="mse = 0.0\nsamples = 1\nvalue = 127000.0"] ;
235 -> 237 ;
238 [label="mse = 0.0\nsamples = 1\nvalue = 149700.0"] ;
230 -> 238 ;
239 [label="X[82] <= -0.335\nmse = 626390285.656\nsamples = 108\nvalue = 133732.463"] ;
205 -> 239 ;
240 [label="X[82] <= -0.822\nmse = 400634880.248\nsamples = 24\nvalue = 114638.792"] ;
239 -> 240 ;
241 [label="X[85] <= -0.126\nmse = 228277343.75\nsamples = 8\nvalue = 98562.5"] ;
240 -> 241 ;
242 [label="X[66] <= 0.5\nmse = 160460000.0\nsamples = 5\nvalue = 90200.0"] ;
241 -> 242 ;
243 [label="X[41] <= 0.5\nmse = 38125000.0\nsamples = 4\nvalue = 84500.0"] ;
242 -> 243 ;
244 [label="X[91] <= -1.724\nmse = 10722222.222\nsamples = 3\nvalue = 87666.667"] ;
243 -> 244 ;
245 [label="mse = 0.0\nsamples = 1\nvalue = 91500.0"] ;
244 -> 245 ;
246 [label="X[82] <= -0.841\nmse = 5062500.0\nsamples = 2\nvalue = 85750.0"] ;
244 -> 246 ;
247 [label="mse = 0.0\nsamples = 1\nvalue = 83500.0"] ;
246 -> 247 ;
248 [label="mse = 0.0\nsamples = 1\nvalue = 88000.0"] ;
246 -> 248 ;
249 [label="mse = 0.0\nsamples = 1\nvalue = 75000.0"] ;
243 -> 249 ;
250 [label="mse = 0.0\nsamples = 1\nvalue = 113000.0"] ;
242 -> 250 ;
251 [label="X[84] <= 0.016\nmse = 30500000.0\nsamples = 3\nvalue = 112500.0"] ;
241 -> 251 ;
252 [label="X[84] <= -0.017\nmse = 9000000.0\nsamples = 2\nvalue = 109000.0"] ;
251 -> 252 ;
253 [label="mse = 0.0\nsamples = 1\nvalue = 106000.0"] ;
252 -> 253 ;
254 [label="mse = 0.0\nsamples = 1\nvalue = 112000.0"] ;
252 -> 254 ;
255 [label="mse = 0.0\nsamples = 1\nvalue = 119500.0"] ;
251 -> 255 ;
256 [label="X[91] <= -1.724\nmse = 292978283.184\nsamples = 16\nvalue = 122676.938"] ;
240 -> 256 ;
257 [label="X[85] <= -0.126\nmse = 162562500.0\nsamples = 2\nvalue = 89250.0"] ;
256 -> 257 ;
258 [label="mse = 0.0\nsamples = 1\nvalue = 76500.0"] ;
257 -> 258 ;
259 [label="mse = 0.0\nsamples = 1\nvalue = 102000.0"] ;
257 -> 259 ;
260 [label="X[82] <= -0.552\nmse = 129182962.311\nsamples = 14\nvalue = 127452.214"] ;
256 -> 260 ;
261 [label="X[86] <= 0.232\nmse = 296425089.0\nsamples = 2\nvalue = 142217.0"] ;
260 -> 261 ;
262 [label="mse = 0.0\nsamples = 1\nvalue = 159434.0"] ;
261 -> 262 ;
263 [label="mse = 0.0\nsamples = 1\nvalue = 125000.0"] ;
261 -> 263 ;
264 [label="X[93] <= 1.37\nmse = 58920600.076\nsamples = 12\nvalue = 124991.417"] ;
260 -> 264 ;
265 [label="X[83] <= -0.061\nmse = 41690156.413\nsamples = 11\nvalue = 126363.364"] ;
264 -> 265 ;
266 [label="X[66] <= 0.5\nmse = 3400966.222\nsamples = 3\nvalue = 117607.333"] ;
265 -> 266 ;
267 [label="X[23] <= 0.5\nmse = 2809.0\nsamples = 2\nvalue = 118911.0"] ;
266 -> 267 ;
268 [label="mse = 0.0\nsamples = 1\nvalue = 118964.0"] ;
267 -> 268 ;
269 [label="mse = 0.0\nsamples = 1\nvalue = 118858.0"] ;
267 -> 269 ;
270 [label="mse = 0.0\nsamples = 1\nvalue = 115000.0"] ;
266 -> 270 ;
271 [label="X[87] <= 0.757\nmse = 16516630.859\nsamples = 8\nvalue = 129646.875"] ;
265 -> 271 ;
272 [label="X[82] <= -0.355\nmse = 8807321.429\nsamples = 7\nvalue = 128525.0"] ;
271 -> 272 ;
273 [label="X[94] <= -0.246\nmse = 2123003.472\nsamples = 6\nvalue = 127445.833"] ;
272 -> 273 ;
274 [label="X[93] <= 0.451\nmse = 113906.25\nsamples = 2\nvalue = 125837.5"] ;
273 -> 274 ;
275 [label="mse = 0.0\nsamples = 1\nvalue = 126175.0"] ;
274 -> 275 ;
276 [label="mse = 0.0\nsamples = 1\nvalue = 125500.0"] ;
274 -> 276 ;
277 [label="X[44] <= 0.5\nmse = 1187500.0\nsamples = 4\nvalue = 128250.0"] ;
273 -> 277 ;
278 [label="X[82] <= -0.401\nmse = 250000.0\nsamples = 2\nvalue = 127500.0"] ;
277 -> 278 ;
279 [label="mse = 0.0\nsamples = 1\nvalue = 128000.0"] ;
278 -> 279 ;
280 [label="mse = 0.0\nsamples = 1\nvalue = 127000.0"] ;
278 -> 280 ;
281 [label="X[91] <= -0.36\nmse = 1000000.0\nsamples = 2\nvalue = 129000.0"] ;
277 -> 281 ;
282 [label="mse = 0.0\nsamples = 1\nvalue = 128000.0"] ;
281 -> 282 ;
283 [label="mse = 0.0\nsamples = 1\nvalue = 130000.0"] ;
281 -> 283 ;
284 [label="mse = 0.0\nsamples = 1\nvalue = 135000.0"] ;
272 -> 284 ;
285 [label="mse = 0.0\nsamples = 1\nvalue = 137500.0"] ;
271 -> 285 ;
286 [label="mse = 0.0\nsamples = 1\nvalue = 109900.0"] ;
264 -> 286 ;
287 [label="X[85] <= 1.705\nmse = 556968787.114\nsamples = 84\nvalue = 139187.798"] ;
239 -> 287 ;
288 [label="X[20] <= 0.5\nmse = 447756972.133\nsamples = 82\nvalue = 137533.841"] ;
287 -> 288 ;
289 [label="X[86] <= 0.232\nmse = 388450831.934\nsamples = 80\nvalue = 138840.938"] ;
288 -> 289 ;
290 [label="X[83] <= -0.061\nmse = 398704966.0\nsamples = 58\nvalue = 135351.293"] ;
289 -> 290 ;
291 [label="X[82] <= -0.031\nmse = 362866974.826\nsamples = 24\nvalue = 128052.083"] ;
290 -> 291 ;
292 [label="X[82] <= -0.137\nmse = 290284875.0\nsamples = 20\nvalue = 132575.0"] ;
291 -> 292 ;
293 [label="X[91] <= -1.724\nmse = 131620763.889\nsamples = 12\nvalue = 127508.333"] ;
292 -> 293 ;
294 [label="mse = 0.0\nsamples = 1\nvalue = 150000.0"] ;
293 -> 294 ;
295 [label="X[25] <= 0.5\nmse = 93416859.504\nsamples = 11\nvalue = 125463.636"] ;
293 -> 295 ;
296 [label="X[93] <= -0.652\nmse = 4000000.0\nsamples = 2\nvalue = 110000.0"] ;
295 -> 296 ;
297 [label="mse = 0.0\nsamples = 1\nvalue = 112000.0"] ;
296 -> 297 ;
298 [label="mse = 0.0\nsamples = 1\nvalue = 108000.0"] ;
296 -> 298 ;
299 [label="X[67] <= 0.5\nmse = 48340000.0\nsamples = 9\nvalue = 128900.0"] ;
295 -> 299 ;
300 [label="X[47] <= 0.5\nmse = 16225306.122\nsamples = 7\nvalue = 126157.143"] ;
299 -> 300 ;
301 [label="X[94] <= -0.993\nmse = 7866666.667\nsamples = 6\nvalue = 124900.0"] ;
300 -> 301 ;
302 [label="X[0] <= 0.5\nmse = 6502500.0\nsamples = 2\nvalue = 122450.0"] ;
301 -> 302 ;
303 [label="mse = 0.0\nsamples = 1\nvalue = 125000.0"] ;
302 -> 303 ;
304 [label="mse = 0.0\nsamples = 1\nvalue = 119900.0"] ;
302 -> 304 ;
305 [label="X[94] <= 0.501\nmse = 4046875.0\nsamples = 4\nvalue = 126125.0"] ;
301 -> 305 ;
306 [label="X[80] <= 0.5\nmse = 1000000.0\nsamples = 2\nvalue = 128000.0"] ;
305 -> 306 ;
307 [label="mse = 0.0\nsamples = 1\nvalue = 127000.0"] ;
306 -> 307 ;
308 [label="mse = 0.0\nsamples = 1\nvalue = 129000.0"] ;
306 -> 308 ;
309 [label="X[7] <= 0.5\nmse = 62500.0\nsamples = 2\nvalue = 124250.0"] ;
305 -> 309 ;
310 [label="mse = 0.0\nsamples = 1\nvalue = 124500.0"] ;
309 -> 310 ;
311 [label="mse = 0.0\nsamples = 1\nvalue = 124000.0"] ;
309 -> 311 ;
312 [label="mse = 0.0\nsamples = 1\nvalue = 133700.0"] ;
300 -> 312 ;
313 [label="X[16] <= 0.5\nmse = 42250000.0\nsamples = 2\nvalue = 138500.0"] ;
299 -> 313 ;
314 [label="mse = 0.0\nsamples = 1\nvalue = 145000.0"] ;
313 -> 314 ;
315 [label="mse = 0.0\nsamples = 1\nvalue = 132000.0"] ;
313 -> 315 ;
316 [label="X[84] <= 0.116\nmse = 432014375.0\nsamples = 8\nvalue = 140175.0"] ;
292 -> 316 ;
317 [label="X[53] <= 0.5\nmse = 72672222.222\nsamples = 6\nvalue = 130233.333"] ;
316 -> 317 ;
318 [label="X[51] <= 0.5\nmse = 48293600.0\nsamples = 5\nvalue = 132780.0"] ;
317 -> 318 ;
319 [label="mse = 0.0\nsamples = 1\nvalue = 119000.0"] ;
318 -> 319 ;
320 [label="X[68] <= 0.5\nmse = 1026875.0\nsamples = 4\nvalue = 136225.0"] ;
318 -> 320 ;
321 [label="X[30] <= 0.5\nmse = 646666.667\nsamples = 3\nvalue = 135800.0"] ;
320 -> 321 ;
322 [label="X[62] <= 0.5\nmse = 62500.0\nsamples = 2\nvalue = 135250.0"] ;
321 -> 322 ;
323 [label="mse = 0.0\nsamples = 1\nvalue = 135000.0"] ;
322 -> 323 ;
324 [label="mse = 0.0\nsamples = 1\nvalue = 135500.0"] ;
322 -> 324 ;
325 [label="mse = 0.0\nsamples = 1\nvalue = 136900.0"] ;
321 -> 325 ;
326 [label="mse = 0.0\nsamples = 1\nvalue = 137500.0"] ;
320 -> 326 ;
327 [label="mse = 0.0\nsamples = 1\nvalue = 117500.0"] ;
317 -> 327 ;
328 [label="X[26] <= 0.5\nmse = 324000000.0\nsamples = 2\nvalue = 170000.0"] ;
316 -> 328 ;
329 [label="mse = 0.0\nsamples = 1\nvalue = 188000.0"] ;
328 -> 329 ;
330 [label="mse = 0.0\nsamples = 1\nvalue = 152000.0"] ;
328 -> 330 ;
331 [label="X[44] <= 0.5\nmse = 112074218.75\nsamples = 4\nvalue = 105437.5"] ;
291 -> 331 ;
332 [label="X[51] <= 0.5\nmse = 1000000.0\nsamples = 2\nvalue = 116000.0"] ;
331 -> 332 ;
333 [label="mse = 0.0\nsamples = 1\nvalue = 115000.0"] ;
332 -> 333 ;
334 [label="mse = 0.0\nsamples = 1\nvalue = 117000.0"] ;
332 -> 334 ;
335 [label="X[71] <= 0.5\nmse = 15625.0\nsamples = 2\nvalue = 94875.0"] ;
331 -> 335 ;
336 [label="mse = 0.0\nsamples = 1\nvalue = 94750.0"] ;
335 -> 336 ;
337 [label="mse = 0.0\nsamples = 1\nvalue = 95000.0"] ;
335 -> 337 ;
338 [label="X[87] <= 3.866\nmse = 359846990.16\nsamples = 34\nvalue = 140503.676"] ;
290 -> 338 ;
339 [label="X[26] <= 0.5\nmse = 260233882.002\nsamples = 33\nvalue = 138700.758"] ;
338 -> 339 ;
340 [label="X[14] <= 0.5\nmse = 196584925.861\nsamples = 28\nvalue = 136040.179"] ;
339 -> 340 ;
341 [label="X[69] <= 0.5\nmse = 65808593.75\nsamples = 8\nvalue = 144187.5"] ;
340 -> 341 ;
342 [label="X[72] <= 0.5\nmse = 18171875.0\nsamples = 4\nvalue = 150625.0"] ;
341 -> 342 ;
343 [label="X[21] <= 0.5\nmse = 10166666.667\nsamples = 3\nvalue = 152500.0"] ;
342 -> 343 ;
344 [label="X[84] <= -0.331\nmse = 10562500.0\nsamples = 2\nvalue = 151250.0"] ;
343 -> 344 ;
345 [label="mse = 0.0\nsamples = 1\nvalue = 148000.0"] ;
344 -> 345 ;
346 [label="mse = 0.0\nsamples = 1\nvalue = 154500.0"] ;
344 -> 346 ;
347 [label="mse = 0.0\nsamples = 1\nvalue = 155000.0"] ;
343 -> 347 ;
348 [label="mse = 0.0\nsamples = 1\nvalue = 145000.0"] ;
342 -> 348 ;
349 [label="X[82] <= 0.012\nmse = 30562500.0\nsamples = 4\nvalue = 137750.0"] ;
341 -> 349 ;
350 [label="X[7] <= 0.5\nmse = 2722222.222\nsamples = 3\nvalue = 134666.667"] ;
349 -> 350 ;
351 [label="mse = 0.0\nsamples = 1\nvalue = 132500.0"] ;
350 -> 351 ;
352 [label="X[94] <= -0.619\nmse = 562500.0\nsamples = 2\nvalue = 135750.0"] ;
350 -> 352 ;
353 [label="mse = 0.0\nsamples = 1\nvalue = 136500.0"] ;
352 -> 353 ;
354 [label="mse = 0.0\nsamples = 1\nvalue = 135000.0"] ;
352 -> 354 ;
355 [label="mse = 0.0\nsamples = 1\nvalue = 147000.0"] ;
349 -> 355 ;
356 [label="X[91] <= -1.724\nmse = 211723304.688\nsamples = 20\nvalue = 132781.25"] ;
340 -> 356 ;
357 [label="X[30] <= 0.5\nmse = 240250000.0\nsamples = 2\nvalue = 112000.0"] ;
356 -> 357 ;
358 [label="mse = 0.0\nsamples = 1\nvalue = 127500.0"] ;
357 -> 358 ;
359 [label="mse = 0.0\nsamples = 1\nvalue = 96500.0"] ;
357 -> 359 ;
360 [label="X[87] <= 0.757\nmse = 155237579.09\nsamples = 18\nvalue = 135090.278"] ;
356 -> 360 ;
361 [label="X[84] <= -0.083\nmse = 107600510.381\nsamples = 17\nvalue = 136866.176"] ;
360 -> 361 ;
362 [label="X[93] <= 0.083\nmse = 84382072.222\nsamples = 15\nvalue = 134788.333"] ;
361 -> 362 ;
363 [label="X[44] <= 0.5\nmse = 69878765.432\nsamples = 9\nvalue = 131711.111"] ;
362 -> 363 ;
364 [label="X[82] <= -0.27\nmse = 51888888.889\nsamples = 6\nvalue = 135566.667"] ;
363 -> 364 ;
365 [label="X[10] <= 0.5\nmse = 562500.0\nsamples = 2\nvalue = 126250.0"] ;
364 -> 365 ;
366 [label="mse = 0.0\nsamples = 1\nvalue = 127000.0"] ;
365 -> 366 ;
367 [label="mse = 0.0\nsamples = 1\nvalue = 125500.0"] ;
365 -> 367 ;
368 [label="X[7] <= 0.5\nmse = 12451875.0\nsamples = 4\nvalue = 140225.0"] ;
364 -> 368 ;
369 [label="X[91] <= -0.36\nmse = 6250000.0\nsamples = 2\nvalue = 137500.0"] ;
368 -> 369 ;
370 [label="mse = 0.0\nsamples = 1\nvalue = 135000.0"] ;
369 -> 370 ;
371 [label="mse = 0.0\nsamples = 1\nvalue = 140000.0"] ;
369 -> 371 ;
372 [label="X[47] <= 0.5\nmse = 3802500.0\nsamples = 2\nvalue = 142950.0"] ;
368 -> 372 ;
373 [label="mse = 0.0\nsamples = 1\nvalue = 144900.0"] ;
372 -> 373 ;
374 [label="mse = 0.0\nsamples = 1\nvalue = 141000.0"] ;
372 -> 374 ;
375 [label="X[83] <= 0.836\nmse = 16666666.667\nsamples = 3\nvalue = 124000.0"] ;
363 -> 375 ;
376 [label="X[25] <= 0.5\nmse = 6250000.0\nsamples = 2\nvalue = 126500.0"] ;
375 -> 376 ;
377 [label="mse = 0.0\nsamples = 1\nvalue = 124000.0"] ;
376 -> 377 ;
378 [label="mse = 0.0\nsamples = 1\nvalue = 129000.0"] ;
376 -> 378 ;
379 [label="mse = 0.0\nsamples = 1\nvalue = 119000.0"] ;
375 -> 379 ;
380 [label="X[84] <= -1.209\nmse = 70627170.139\nsamples = 6\nvalue = 139404.167"] ;
362 -> 380 ;
381 [label="mse = 0.0\nsamples = 1\nvalue = 153575.0"] ;
380 -> 381 ;
382 [label="X[69] <= 0.5\nmse = 36557600.0\nsamples = 5\nvalue = 136570.0"] ;
380 -> 382 ;
383 [label="X[82] <= -0.166\nmse = 52562500.0\nsamples = 2\nvalue = 131750.0"] ;
382 -> 383 ;
384 [label="mse = 0.0\nsamples = 1\nvalue = 139000.0"] ;
383 -> 384 ;
385 [label="mse = 0.0\nsamples = 1\nvalue = 124500.0"] ;
383 -> 385 ;
386 [label="X[91] <= -0.36\nmse = 73888.889\nsamples = 3\nvalue = 139783.333"] ;
382 -> 386 ;
387 [label="mse = 0.0\nsamples = 1\nvalue = 139400.0"] ;
386 -> 387 ;
388 [label="X[66] <= 0.5\nmse = 625.0\nsamples = 2\nvalue = 139975.0"] ;
386 -> 388 ;
389 [label="mse = 0.0\nsamples = 1\nvalue = 139950.0"] ;
388 -> 389 ;
390 [label="mse = 0.0\nsamples = 1\nvalue = 140000.0"] ;
388 -> 390 ;
391 [label="X[33] <= 0.5\nmse = 6502500.0\nsamples = 2\nvalue = 152450.0"] ;
361 -> 391 ;
392 [label="mse = 0.0\nsamples = 1\nvalue = 149900.0"] ;
391 -> 392 ;
393 [label="mse = 0.0\nsamples = 1\nvalue = 155000.0"] ;
391 -> 393 ;
394 [label="mse = 0.0\nsamples = 1\nvalue = 104900.0"] ;
360 -> 394 ;
395 [label="X[89] <= 0.581\nmse = 355040000.0\nsamples = 5\nvalue = 153600.0"] ;
339 -> 395 ;
396 [label="X[85] <= -0.126\nmse = 155000000.0\nsamples = 4\nvalue = 146000.0"] ;
395 -> 396 ;
397 [label="X[67] <= 0.5\nmse = 144000000.0\nsamples = 2\nvalue = 155000.0"] ;
396 -> 397 ;
398 [label="mse = 0.0\nsamples = 1\nvalue = 143000.0"] ;
397 -> 398 ;
399 [label="mse = 0.0\nsamples = 1\nvalue = 167000.0"] ;
397 -> 399 ;
400 [label="X[21] <= 0.5\nmse = 4000000.0\nsamples = 2\nvalue = 137000.0"] ;
396 -> 400 ;
401 [label="mse = 0.0\nsamples = 1\nvalue = 135000.0"] ;
400 -> 401 ;
402 [label="mse = 0.0\nsamples = 1\nvalue = 139000.0"] ;
400 -> 402 ;
403 [label="mse = 0.0\nsamples = 1\nvalue = 184000.0"] ;
395 -> 403 ;
404 [label="mse = 0.0\nsamples = 1\nvalue = 200000.0"] ;
338 -> 404 ;
405 [label="X[69] <= 0.5\nmse = 244673099.174\nsamples = 22\nvalue = 148040.909"] ;
289 -> 405 ;
406 [label="X[78] <= 0.5\nmse = 70867479.339\nsamples = 11\nvalue = 159904.545"] ;
405 -> 406 ;
407 [label="X[94] <= -0.246\nmse = 46551111.111\nsamples = 9\nvalue = 157283.333"] ;
406 -> 407 ;
408 [label="X[52] <= 0.5\nmse = 8442500.0\nsamples = 4\nvalue = 153350.0"] ;
407 -> 408 ;
409 [label="X[82] <= -0.061\nmse = 6268888.889\nsamples = 3\nvalue = 154466.667"] ;
408 -> 409 ;
410 [label="mse = 0.0\nsamples = 1\nvalue = 157900.0"] ;
409 -> 410 ;
411 [label="X[14] <= 0.5\nmse = 562500.0\nsamples = 2\nvalue = 152750.0"] ;
409 -> 411 ;
412 [label="mse = 0.0\nsamples = 1\nvalue = 152000.0"] ;
411 -> 412 ;
413 [label="mse = 0.0\nsamples = 1\nvalue = 153500.0"] ;
411 -> 413 ;
414 [label="mse = 0.0\nsamples = 1\nvalue = 150000.0"] ;
408 -> 414 ;
415 [label="X[68] <= 0.5\nmse = 54759600.0\nsamples = 5\nvalue = 160430.0"] ;
407 -> 415 ;
416 [label="X[84] <= -0.133\nmse = 36375000.0\nsamples = 3\nvalue = 155750.0"] ;
415 -> 416 ;
417 [label="mse = 0.0\nsamples = 1\nvalue = 147500.0"] ;
416 -> 417 ;
418 [label="X[89] <= -0.033\nmse = 3515625.0\nsamples = 2\nvalue = 159875.0"] ;
416 -> 418 ;
419 [label="mse = 0.0\nsamples = 1\nvalue = 161750.0"] ;
418 -> 419 ;
420 [label="mse = 0.0\nsamples = 1\nvalue = 158000.0"] ;
418 -> 420 ;
421 [label="X[87] <= 0.757\nmse = 202500.0\nsamples = 2\nvalue = 167450.0"] ;
415 -> 421 ;
422 [label="mse = 0.0\nsamples = 1\nvalue = 167000.0"] ;
421 -> 422 ;
423 [label="mse = 0.0\nsamples = 1\nvalue = 167900.0"] ;
421 -> 423 ;
424 [label="X[72] <= 0.5\nmse = 10240000.0\nsamples = 2\nvalue = 171700.0"] ;
406 -> 424 ;
425 [label="mse = 0.0\nsamples = 1\nvalue = 168500.0"] ;
424 -> 425 ;
426 [label="mse = 0.0\nsamples = 1\nvalue = 174900.0"] ;
424 -> 426 ;
427 [label="X[82] <= -0.119\nmse = 136986983.471\nsamples = 11\nvalue = 136177.273"] ;
405 -> 427 ;
428 [label="X[82] <= -0.281\nmse = 50914400.0\nsamples = 5\nvalue = 126690.0"] ;
427 -> 428 ;
429 [label="mse = 0.0\nsamples = 1\nvalue = 138000.0"] ;
428 -> 429 ;
430 [label="X[36] <= 0.5\nmse = 23669218.75\nsamples = 4\nvalue = 123862.5"] ;
428 -> 430 ;
431 [label="X[91] <= -1.724\nmse = 4083888.889\nsamples = 3\nvalue = 126483.333"] ;
430 -> 431 ;
432 [label="mse = 0.0\nsamples = 1\nvalue = 128950.0"] ;
431 -> 432 ;
433 [label="X[84] <= -0.315\nmse = 1562500.0\nsamples = 2\nvalue = 125250.0"] ;
431 -> 433 ;
434 [label="mse = 0.0\nsamples = 1\nvalue = 126500.0"] ;
433 -> 434 ;
435 [label="mse = 0.0\nsamples = 1\nvalue = 124000.0"] ;
433 -> 435 ;
436 [label="mse = 0.0\nsamples = 1\nvalue = 116000.0"] ;
430 -> 436 ;
437 [label="X[82] <= 0.005\nmse = 71201388.889\nsamples = 6\nvalue = 144083.333"] ;
427 -> 437 ;
438 [label="X[94] <= 0.501\nmse = 28400000.0\nsamples = 5\nvalue = 141000.0"] ;
437 -> 438 ;
439 [label="X[16] <= 0.5\nmse = 30250000.0\nsamples = 2\nvalue = 145500.0"] ;
438 -> 439 ;
440 [label="mse = 0.0\nsamples = 1\nvalue = 151000.0"] ;
439 -> 440 ;
441 [label="mse = 0.0\nsamples = 1\nvalue = 140000.0"] ;
439 -> 441 ;
442 [label="X[74] <= 0.5\nmse = 4666666.667\nsamples = 3\nvalue = 138000.0"] ;
438 -> 442 ;
443 [label="mse = 0.0\nsamples = 1\nvalue = 135000.0"] ;
442 -> 443 ;
444 [label="X[93] <= 0.083\nmse = 250000.0\nsamples = 2\nvalue = 139500.0"] ;
442 -> 444 ;
445 [label="mse = 0.0\nsamples = 1\nvalue = 139000.0"] ;
444 -> 445 ;
446 [label="mse = 0.0\nsamples = 1\nvalue = 140000.0"] ;
444 -> 446 ;
447 [label="mse = 0.0\nsamples = 1\nvalue = 159500.0"] ;
437 -> 447 ;
448 [label="X[14] <= 0.5\nmse = 18062500.0\nsamples = 2\nvalue = 85250.0"] ;
288 -> 448 ;
449 [label="mse = 0.0\nsamples = 1\nvalue = 81000.0"] ;
448 -> 449 ;
450 [label="mse = 0.0\nsamples = 1\nvalue = 89500.0"] ;
448 -> 450 ;
451 [label="X[86] <= 0.232\nmse = 324000000.0\nsamples = 2\nvalue = 207000.0"] ;
287 -> 451 ;
452 [label="mse = 0.0\nsamples = 1\nvalue = 225000.0"] ;
451 -> 452 ;
453 [label="mse = 0.0\nsamples = 1\nvalue = 189000.0"] ;
451 -> 453 ;
454 [label="X[89] <= -0.647\nmse = 760540681.847\nsamples = 118\nvalue = 143540.0"] ;
4 -> 454 ;
455 [label="X[13] <= 0.5\nmse = 432208735.312\nsamples = 32\nvalue = 121313.531"] ;
454 -> 455 ;
456 [label="X[79] <= 0.5\nmse = 376648237.014\nsamples = 31\nvalue = 119839.774"] ;
455 -> 456 ;
457 [label="X[25] <= 0.5\nmse = 275492391.667\nsamples = 30\nvalue = 121755.0"] ;
456 -> 457 ;
458 [label="X[62] <= 0.5\nmse = 124155025.0\nsamples = 10\nvalue = 110915.0"] ;
457 -> 458 ;
459 [label="X[93] <= -0.652\nmse = 16244648.438\nsamples = 8\nvalue = 116143.75"] ;
458 -> 459 ;
460 [label="mse = 0.0\nsamples = 1\nvalue = 107500.0"] ;
459 -> 460 ;
461 [label="X[40] <= 0.5\nmse = 6367040.816\nsamples = 7\nvalue = 117378.571"] ;
459 -> 461 ;
462 [label="X[33] <= 0.5\nmse = 6651875.0\nsamples = 4\nvalue = 116225.0"] ;
461 -> 462 ;
463 [label="mse = 0.0\nsamples = 1\nvalue = 113000.0"] ;
462 -> 463 ;
464 [label="X[89] <= -1.261\nmse = 4246666.667\nsamples = 3\nvalue = 117300.0"] ;
462 -> 464 ;
465 [label="mse = 0.0\nsamples = 1\nvalue = 115000.0"] ;
464 -> 465 ;
466 [label="X[87] <= -0.487\nmse = 2402500.0\nsamples = 2\nvalue = 118450.0"] ;
464 -> 466 ;
467 [label="mse = 0.0\nsamples = 1\nvalue = 116900.0"] ;
466 -> 467 ;
468 [label="mse = 0.0\nsamples = 1\nvalue = 120000.0"] ;
466 -> 468 ;
469 [label="X[83] <= 1.733\nmse = 1847222.222\nsamples = 3\nvalue = 118916.667"] ;
461 -> 469 ;
470 [label="X[55] <= 0.5\nmse = 15625.0\nsamples = 2\nvalue = 119875.0"] ;
469 -> 470 ;
471 [label="mse = 0.0\nsamples = 1\nvalue = 119750.0"] ;
470 -> 471 ;
472 [label="mse = 0.0\nsamples = 1\nvalue = 120000.0"] ;
470 -> 472 ;
473 [label="mse = 0.0\nsamples = 1\nvalue = 117000.0"] ;
469 -> 473 ;
474 [label="X[94] <= -0.993\nmse = 9000000.0\nsamples = 2\nvalue = 90000.0"] ;
458 -> 474 ;
475 [label="mse = 0.0\nsamples = 1\nvalue = 93000.0"] ;
474 -> 475 ;
476 [label="mse = 0.0\nsamples = 1\nvalue = 87000.0"] ;
474 -> 476 ;
477 [label="X[69] <= 0.5\nmse = 263031875.0\nsamples = 20\nvalue = 127175.0"] ;
457 -> 477 ;
478 [label="X[82] <= -0.406\nmse = 117246913.58\nsamples = 9\nvalue = 138055.556"] ;
477 -> 478 ;
479 [label="X[10] <= 0.5\nmse = 3166666.667\nsamples = 3\nvalue = 126500.0"] ;
478 -> 479 ;
480 [label="X[57] <= 0.5\nmse = 62500.0\nsamples = 2\nvalue = 127750.0"] ;
479 -> 480 ;
481 [label="mse = 0.0\nsamples = 1\nvalue = 128000.0"] ;
480 -> 481 ;
482 [label="mse = 0.0\nsamples = 1\nvalue = 127500.0"] ;
480 -> 482 ;
483 [label="mse = 0.0\nsamples = 1\nvalue = 124000.0"] ;
479 -> 483 ;
484 [label="X[40] <= 0.5\nmse = 74138888.889\nsamples = 6\nvalue = 143833.333"] ;
478 -> 484 ;
485 [label="X[14] <= 0.5\nmse = 59040000.0\nsamples = 5\nvalue = 141600.0"] ;
484 -> 485 ;
486 [label="mse = 0.0\nsamples = 1\nvalue = 153000.0"] ;
485 -> 486 ;
487 [label="X[42] <= 0.5\nmse = 33187500.0\nsamples = 4\nvalue = 138750.0"] ;
485 -> 487 ;
488 [label="X[85] <= -0.126\nmse = 2000000.0\nsamples = 3\nvalue = 142000.0"] ;
487 -> 488 ;
489 [label="mse = 0.0\nsamples = 1\nvalue = 140000.0"] ;
488 -> 489 ;
490 [label="mse = 0.0\nsamples = 2\nvalue = 143000.0"] ;
488 -> 490 ;
491 [label="mse = 0.0\nsamples = 1\nvalue = 129000.0"] ;
487 -> 491 ;
492 [label="mse = 0.0\nsamples = 1\nvalue = 155000.0"] ;
484 -> 492 ;
493 [label="X[84] <= -0.017\nmse = 206198347.107\nsamples = 11\nvalue = 118272.727"] ;
477 -> 493 ;
494 [label="X[71] <= 0.5\nmse = 127722222.222\nsamples = 9\nvalue = 123000.0"] ;
493 -> 494 ;
495 [label="X[51] <= 0.5\nmse = 59887755.102\nsamples = 7\nvalue = 127428.571"] ;
494 -> 495 ;
496 [label="mse = 0.0\nsamples = 1\nvalue = 115000.0"] ;
495 -> 496 ;
497 [label="X[21] <= 0.5\nmse = 39833333.333\nsamples = 6\nvalue = 129500.0"] ;
495 -> 497 ;
498 [label="X[66] <= 0.5\nmse = 29671875.0\nsamples = 4\nvalue = 126625.0"] ;
497 -> 498 ;
499 [label="X[84] <= -0.083\nmse = 7562500.0\nsamples = 2\nvalue = 131250.0"] ;
498 -> 499 ;
500 [label="mse = 0.0\nsamples = 1\nvalue = 134000.0"] ;
499 -> 500 ;
501 [label="mse = 0.0\nsamples = 1\nvalue = 128500.0"] ;
499 -> 501 ;
502 [label="X[16] <= 0.5\nmse = 9000000.0\nsamples = 2\nvalue = 122000.0"] ;
498 -> 502 ;
503 [label="mse = 0.0\nsamples = 1\nvalue = 125000.0"] ;
502 -> 503 ;
504 [label="mse = 0.0\nsamples = 1\nvalue = 119000.0"] ;
502 -> 504 ;
505 [label="X[87] <= -0.487\nmse = 10562500.0\nsamples = 2\nvalue = 135250.0"] ;
497 -> 505 ;
506 [label="mse = 0.0\nsamples = 1\nvalue = 132000.0"] ;
505 -> 506 ;
507 [label="mse = 0.0\nsamples = 1\nvalue = 138500.0"] ;
505 -> 507 ;
508 [label="X[53] <= 0.5\nmse = 56250000.0\nsamples = 2\nvalue = 107500.0"] ;
494 -> 508 ;
509 [label="mse = 0.0\nsamples = 1\nvalue = 100000.0"] ;
508 -> 509 ;
510 [label="mse = 0.0\nsamples = 1\nvalue = 115000.0"] ;
508 -> 510 ;
511 [label="X[59] <= 0.5\nmse = 6250000.0\nsamples = 2\nvalue = 97000.0"] ;
493 -> 511 ;
512 [label="mse = 0.0\nsamples = 1\nvalue = 99500.0"] ;
511 -> 512 ;
513 [label="mse = 0.0\nsamples = 1\nvalue = 94500.0"] ;
511 -> 513 ;
514 [label="mse = 0.0\nsamples = 1\nvalue = 62383.0"] ;
456 -> 514 ;
515 [label="mse = 0.0\nsamples = 1\nvalue = 167000.0"] ;
455 -> 515 ;
516 [label="X[35] <= 0.5\nmse = 630492740.936\nsamples = 86\nvalue = 151810.314"] ;
454 -> 516 ;
517 [label="mse = 0.0\nsamples = 1\nvalue = 256000.0"] ;
516 -> 517 ;
518 [label="X[5] <= 0.5\nmse = 508696157.494\nsamples = 85\nvalue = 150584.553"] ;
516 -> 518 ;
519 [label="X[0] <= 0.5\nmse = 442677388.132\nsamples = 68\nvalue = 154289.515"] ;
518 -> 519 ;
520 [label="X[91] <= -0.36\nmse = 245528926.793\nsamples = 13\nvalue = 138279.769"] ;
519 -> 520 ;
521 [label="X[69] <= 0.5\nmse = 164222222.222\nsamples = 3\nvalue = 114666.667"] ;
520 -> 521 ;
522 [label="X[84] <= 0.248\nmse = 12250000.0\nsamples = 2\nvalue = 123500.0"] ;
521 -> 522 ;
523 [label="mse = 0.0\nsamples = 1\nvalue = 127000.0"] ;
522 -> 523 ;
524 [label="mse = 0.0\nsamples = 1\nvalue = 120000.0"] ;
522 -> 524 ;
525 [label="mse = 0.0\nsamples = 1\nvalue = 97000.0"] ;
521 -> 525 ;
526 [label="X[25] <= 0.5\nmse = 52465279.21\nsamples = 10\nvalue = 145363.7"] ;
520 -> 526 ;
527 [label="X[84] <= 0.182\nmse = 35068888.889\nsamples = 3\nvalue = 135966.667"] ;
526 -> 527 ;
528 [label="X[83] <= 0.388\nmse = 4202500.0\nsamples = 2\nvalue = 131950.0"] ;
527 -> 528 ;
529 [label="mse = 0.0\nsamples = 1\nvalue = 134000.0"] ;
528 -> 529 ;
530 [label="mse = 0.0\nsamples = 1\nvalue = 129900.0"] ;
528 -> 530 ;
531 [label="mse = 0.0\nsamples = 1\nvalue = 144000.0"] ;
527 -> 531 ;
532 [label="X[82] <= -0.738\nmse = 5857057.429\nsamples = 7\nvalue = 149391.0"] ;
526 -> 532 ;
533 [label="X[94] <= 0.501\nmse = 2860000.0\nsamples = 5\nvalue = 148200.0"] ;
532 -> 533 ;
534 [label="mse = 0.0\nsamples = 1\nvalue = 151000.0"] ;
533 -> 534 ;
535 [label="X[93] <= -0.468\nmse = 1125000.0\nsamples = 4\nvalue = 147500.0"] ;
533 -> 535 ;
536 [label="mse = 0.0\nsamples = 1\nvalue = 148500.0"] ;
535 -> 536 ;
537 [label="X[83] <= -0.061\nmse = 1055555.556\nsamples = 3\nvalue = 147166.667"] ;
535 -> 537 ;
538 [label="X[94] <= 1.248\nmse = 250000.0\nsamples = 2\nvalue = 146500.0"] ;
537 -> 538 ;
539 [label="mse = 0.0\nsamples = 1\nvalue = 147000.0"] ;
538 -> 539 ;
540 [label="mse = 0.0\nsamples = 1\nvalue = 146000.0"] ;
538 -> 540 ;
541 [label="mse = 0.0\nsamples = 1\nvalue = 148500.0"] ;
537 -> 541 ;
542 [label="X[4] <= 0.5\nmse = 937992.25\nsamples = 2\nvalue = 152368.5"] ;
532 -> 542 ;
543 [label="mse = 0.0\nsamples = 1\nvalue = 153337.0"] ;
542 -> 543 ;
544 [label="mse = 0.0\nsamples = 1\nvalue = 151400.0"] ;
542 -> 544 ;
545 [label="X[10] <= 0.5\nmse = 414373714.05\nsamples = 55\nvalue = 158073.636"] ;
519 -> 545 ;
546 [label="X[85] <= -0.126\nmse = 359368318.01\nsamples = 43\nvalue = 154765.116"] ;
545 -> 546 ;
547 [label="X[82] <= -0.267\nmse = 285806488.889\nsamples = 30\nvalue = 150713.333"] ;
546 -> 547 ;
548 [label="X[60] <= 0.5\nmse = 110888888.889\nsamples = 3\nvalue = 121333.333"] ;
547 -> 548 ;
549 [label="X[7] <= 0.5\nmse = 12250000.0\nsamples = 2\nvalue = 128500.0"] ;
548 -> 549 ;
550 [label="mse = 0.0\nsamples = 1\nvalue = 125000.0"] ;
549 -> 550 ;
551 [label="mse = 0.0\nsamples = 1\nvalue = 132000.0"] ;
549 -> 551 ;
552 [label="mse = 0.0\nsamples = 1\nvalue = 107000.0"] ;
548 -> 552 ;
553 [label="X[90] <= 2.963\nmse = 198675802.469\nsamples = 27\nvalue = 153977.778"] ;
547 -> 553 ;
554 [label="X[82] <= -0.149\nmse = 154489940.828\nsamples = 26\nvalue = 152592.308"] ;
553 -> 554 ;
555 [label="X[67] <= 0.5\nmse = 34330578.512\nsamples = 11\nvalue = 146681.818"] ;
554 -> 555 ;
556 [label="X[84] <= -0.381\nmse = 19690000.0\nsamples = 10\nvalue = 145400.0"] ;
555 -> 556 ;
557 [label="X[42] <= 0.5\nmse = 4040000.0\nsamples = 5\nvalue = 142900.0"] ;
556 -> 557 ;
558 [label="X[12] <= 0.5\nmse = 296875.0\nsamples = 4\nvalue = 143875.0"] ;
557 -> 558 ;
559 [label="X[84] <= -1.077\nmse = 55555.556\nsamples = 3\nvalue = 144166.667"] ;
558 -> 559 ;
560 [label="mse = 0.0\nsamples = 2\nvalue = 144000.0"] ;
559 -> 560 ;
561 [label="mse = 0.0\nsamples = 1\nvalue = 144500.0"] ;
559 -> 561 ;
562 [label="mse = 0.0\nsamples = 1\nvalue = 143000.0"] ;
558 -> 562 ;
563 [label="mse = 0.0\nsamples = 1\nvalue = 139000.0"] ;
557 -> 563 ;
564 [label="X[47] <= 0.5\nmse = 22840000.0\nsamples = 5\nvalue = 147900.0"] ;
556 -> 564 ;
565 [label="X[33] <= 0.5\nmse = 12796875.0\nsamples = 4\nvalue = 146125.0"] ;
564 -> 565 ;
566 [label="X[69] <= 0.5\nmse = 2250000.0\nsamples = 2\nvalue = 149500.0"] ;
565 -> 566 ;
567 [label="mse = 0.0\nsamples = 1\nvalue = 148000.0"] ;
566 -> 567 ;
568 [label="mse = 0.0\nsamples = 1\nvalue = 151000.0"] ;
566 -> 568 ;
569 [label="X[57] <= 0.5\nmse = 562500.0\nsamples = 2\nvalue = 142750.0"] ;
565 -> 569 ;
570 [label="mse = 0.0\nsamples = 1\nvalue = 143500.0"] ;
569 -> 570 ;
571 [label="mse = 0.0\nsamples = 1\nvalue = 142000.0"] ;
569 -> 571 ;
572 [label="mse = 0.0\nsamples = 1\nvalue = 155000.0"] ;
564 -> 572 ;
573 [label="mse = 0.0\nsamples = 1\nvalue = 159500.0"] ;
555 -> 573 ;
574 [label="X[84] <= -0.05\nmse = 198201955.556\nsamples = 15\nvalue = 156926.667"] ;
554 -> 574 ;
575 [label="X[82] <= -0.085\nmse = 173741388.889\nsamples = 12\nvalue = 153116.667"] ;
574 -> 575 ;
576 [label="X[66] <= 0.5\nmse = 63561224.49\nsamples = 7\nvalue = 159785.714"] ;
575 -> 576 ;
577 [label="X[93] <= -1.02\nmse = 25701388.889\nsamples = 6\nvalue = 162416.667"] ;
576 -> 577 ;
578 [label="mse = 0.0\nsamples = 1\nvalue = 153000.0"] ;
577 -> 578 ;
579 [label="X[84] <= -0.282\nmse = 9560000.0\nsamples = 5\nvalue = 164300.0"] ;
577 -> 579 ;
580 [label="X[82] <= -0.132\nmse = 3171875.0\nsamples = 4\nvalue = 165625.0"] ;
579 -> 580 ;
581 [label="X[83] <= -0.061\nmse = 1000000.0\nsamples = 2\nvalue = 164000.0"] ;
580 -> 581 ;
582 [label="mse = 0.0\nsamples = 1\nvalue = 165000.0"] ;
581 -> 582 ;
583 [label="mse = 0.0\nsamples = 1\nvalue = 163000.0"] ;
581 -> 583 ;
584 [label="X[89] <= -0.033\nmse = 62500.0\nsamples = 2\nvalue = 167250.0"] ;
580 -> 584 ;
585 [label="mse = 0.0\nsamples = 1\nvalue = 167500.0"] ;
584 -> 585 ;
586 [label="mse = 0.0\nsamples = 1\nvalue = 167000.0"] ;
584 -> 586 ;
587 [label="mse = 0.0\nsamples = 1\nvalue = 159000.0"] ;
579 -> 587 ;
588 [label="mse = 0.0\nsamples = 1\nvalue = 144000.0"] ;
576 -> 588 ;
589 [label="X[14] <= 0.5\nmse = 178553600.0\nsamples = 5\nvalue = 143780.0"] ;
575 -> 589 ;
590 [label="X[90] <= 1.398\nmse = 43335555.556\nsamples = 3\nvalue = 133966.667"] ;
589 -> 590 ;
591 [label="X[79] <= 0.5\nmse = 3802500.0\nsamples = 2\nvalue = 129450.0"] ;
590 -> 591 ;
592 [label="mse = 0.0\nsamples = 1\nvalue = 127500.0"] ;
591 -> 592 ;
593 [label="mse = 0.0\nsamples = 1\nvalue = 131400.0"] ;
591 -> 593 ;
594 [label="mse = 0.0\nsamples = 1\nvalue = 143000.0"] ;
590 -> 594 ;
595 [label="X[94] <= 0.501\nmse = 20250000.0\nsamples = 2\nvalue = 158500.0"] ;
589 -> 595 ;
596 [label="mse = 0.0\nsamples = 1\nvalue = 163000.0"] ;
595 -> 596 ;
597 [label="mse = 0.0\nsamples = 1\nvalue = 154000.0"] ;
595 -> 597 ;
598 [label="X[69] <= 0.5\nmse = 5722222.222\nsamples = 3\nvalue = 172166.667"] ;
574 -> 598 ;
599 [label="X[94] <= -0.619\nmse = 250000.0\nsamples = 2\nvalue = 170500.0"] ;
598 -> 599 ;
600 [label="mse = 0.0\nsamples = 1\nvalue = 170000.0"] ;
599 -> 600 ;
601 [label="mse = 0.0\nsamples = 1\nvalue = 171000.0"] ;
599 -> 601 ;
602 [label="mse = 0.0\nsamples = 1\nvalue = 175500.0"] ;
598 -> 602 ;
603 [label="mse = 0.0\nsamples = 1\nvalue = 190000.0"] ;
553 -> 603 ;
604 [label="X[94] <= -0.993\nmse = 403813609.467\nsamples = 13\nvalue = 164115.385"] ;
546 -> 604 ;
605 [label="X[23] <= 0.5\nmse = 189062500.0\nsamples = 2\nvalue = 193750.0"] ;
604 -> 605 ;
606 [label="mse = 0.0\nsamples = 1\nvalue = 207500.0"] ;
605 -> 606 ;
607 [label="mse = 0.0\nsamples = 1\nvalue = 180000.0"] ;
605 -> 607 ;
608 [label="X[89] <= 1.195\nmse = 254152892.562\nsamples = 11\nvalue = 158727.273"] ;
604 -> 608 ;
609 [label="X[83] <= 0.836\nmse = 175710000.0\nsamples = 10\nvalue = 161800.0"] ;
608 -> 609 ;
610 [label="X[26] <= 0.5\nmse = 116833333.333\nsamples = 9\nvalue = 159000.0"] ;
609 -> 610 ;
611 [label="X[66] <= 0.5\nmse = 99796875.0\nsamples = 8\nvalue = 157125.0"] ;
610 -> 611 ;
612 [label="X[93] <= 0.451\nmse = 78201388.889\nsamples = 6\nvalue = 153583.333"] ;
611 -> 612 ;
613 [label="X[14] <= 0.5\nmse = 22888888.889\nsamples = 3\nvalue = 145666.667"] ;
612 -> 613 ;
614 [label="mse = 0.0\nsamples = 1\nvalue = 139000.0"] ;
613 -> 614 ;
615 [label="X[84] <= 0.199\nmse = 1000000.0\nsamples = 2\nvalue = 149000.0"] ;
613 -> 615 ;
616 [label="mse = 0.0\nsamples = 1\nvalue = 150000.0"] ;
615 -> 616 ;
617 [label="mse = 0.0\nsamples = 1\nvalue = 148000.0"] ;
615 -> 617 ;
618 [label="X[7] <= 0.5\nmse = 8166666.667\nsamples = 3\nvalue = 161500.0"] ;
612 -> 618 ;
619 [label="mse = 0.0\nsamples = 1\nvalue = 158000.0"] ;
618 -> 619 ;
620 [label="X[84] <= -0.017\nmse = 3062500.0\nsamples = 2\nvalue = 163250.0"] ;
618 -> 620 ;
621 [label="mse = 0.0\nsamples = 1\nvalue = 161500.0"] ;
620 -> 621 ;
622 [label="mse = 0.0\nsamples = 1\nvalue = 165000.0"] ;
620 -> 622 ;
623 [label="X[7] <= 0.5\nmse = 14062500.0\nsamples = 2\nvalue = 167750.0"] ;
611 -> 623 ;
624 [label="mse = 0.0\nsamples = 1\nvalue = 164000.0"] ;
623 -> 624 ;
625 [label="mse = 0.0\nsamples = 1\nvalue = 171500.0"] ;
623 -> 625 ;
626 [label="mse = 0.0\nsamples = 1\nvalue = 174000.0"] ;
610 -> 626 ;
627 [label="mse = 0.0\nsamples = 1\nvalue = 187000.0"] ;
609 -> 627 ;
628 [label="mse = 0.0\nsamples = 1\nvalue = 128000.0"] ;
608 -> 628 ;
629 [label="X[44] <= 0.5\nmse = 431698524.306\nsamples = 12\nvalue = 169929.167"] ;
545 -> 629 ;
630 [label="X[91] <= -0.36\nmse = 223347968.75\nsamples = 4\nvalue = 185812.5"] ;
629 -> 630 ;
631 [label="mse = 0.0\nsamples = 1\nvalue = 200100.0"] ;
630 -> 631 ;
632 [label="X[84] <= 0.049\nmse = 207071666.667\nsamples = 3\nvalue = 181050.0"] ;
630 -> 632 ;
633 [label="X[89] <= 0.274\nmse = 41280625.0\nsamples = 2\nvalue = 171575.0"] ;
632 -> 633 ;
634 [label="mse = 0.0\nsamples = 1\nvalue = 178000.0"] ;
633 -> 634 ;
635 [label="mse = 0.0\nsamples = 1\nvalue = 165150.0"] ;
633 -> 635 ;
636 [label="mse = 0.0\nsamples = 1\nvalue = 200000.0"] ;
632 -> 636 ;
637 [label="X[87] <= 0.757\nmse = 346663593.75\nsamples = 8\nvalue = 161987.5"] ;
629 -> 637 ;
638 [label="X[57] <= 0.5\nmse = 7388888.889\nsamples = 3\nvalue = 151166.667"] ;
637 -> 638 ;
639 [label="X[60] <= 0.5\nmse = 62500.0\nsamples = 2\nvalue = 149250.0"] ;
638 -> 639 ;
640 [label="mse = 0.0\nsamples = 1\nvalue = 149000.0"] ;
639 -> 640 ;
641 [label="mse = 0.0\nsamples = 1\nvalue = 149500.0"] ;
639 -> 641 ;
642 [label="mse = 0.0\nsamples = 1\nvalue = 155000.0"] ;
638 -> 642 ;
643 [label="X[58] <= 0.5\nmse = 437821600.0\nsamples = 5\nvalue = 168480.0"] ;
637 -> 643 ;
644 [label="X[84] <= -0.282\nmse = 130492500.0\nsamples = 4\nvalue = 159350.0"] ;
643 -> 644 ;
645 [label="mse = 0.0\nsamples = 1\nvalue = 169500.0"] ;
644 -> 645 ;
646 [label="X[94] <= -0.246\nmse = 128202222.222\nsamples = 3\nvalue = 155966.667"] ;
644 -> 646 ;
647 [label="X[83] <= -0.061\nmse = 1102500.0\nsamples = 2\nvalue = 163950.0"] ;
646 -> 647 ;
648 [label="mse = 0.0\nsamples = 1\nvalue = 162900.0"] ;
647 -> 648 ;
649 [label="mse = 0.0\nsamples = 1\nvalue = 165000.0"] ;
647 -> 649 ;
650 [label="mse = 0.0\nsamples = 1\nvalue = 140000.0"] ;
646 -> 650 ;
651 [label="mse = 0.0\nsamples = 1\nvalue = 205000.0"] ;
643 -> 651 ;
652 [label="X[47] <= 0.5\nmse = 498236401.384\nsamples = 17\nvalue = 135764.706"] ;
518 -> 652 ;
653 [label="X[71] <= 0.5\nmse = 394226734.694\nsamples = 14\nvalue = 141142.857"] ;
652 -> 653 ;
654 [label="X[44] <= 0.5\nmse = 318041301.775\nsamples = 13\nvalue = 138384.615"] ;
653 -> 654 ;
655 [label="X[51] <= 0.5\nmse = 151296000.0\nsamples = 10\nvalue = 146000.0"] ;
654 -> 655 ;
656 [label="mse = 0.0\nsamples = 1\nvalue = 169500.0"] ;
655 -> 656 ;
657 [label="X[89] <= -0.033\nmse = 99927654.321\nsamples = 9\nvalue = 143388.889"] ;
655 -> 657 ;
658 [label="X[91] <= -0.36\nmse = 70511875.0\nsamples = 4\nvalue = 137025.0"] ;
657 -> 658 ;
659 [label="X[84] <= -1.242\nmse = 5342222.222\nsamples = 3\nvalue = 141733.333"] ;
658 -> 659 ;
660 [label="mse = 0.0\nsamples = 1\nvalue = 145000.0"] ;
659 -> 660 ;
661 [label="X[90] <= 1.398\nmse = 10000.0\nsamples = 2\nvalue = 140100.0"] ;
659 -> 661 ;
662 [label="mse = 0.0\nsamples = 1\nvalue = 140200.0"] ;
661 -> 662 ;
663 [label="mse = 0.0\nsamples = 1\nvalue = 140000.0"] ;
661 -> 663 ;
664 [label="mse = 0.0\nsamples = 1\nvalue = 122900.0"] ;
658 -> 664 ;
665 [label="X[93] <= 0.083\nmse = 65141600.0\nsamples = 5\nvalue = 148480.0"] ;
657 -> 665 ;
666 [label="X[26] <= 0.5\nmse = 10562500.0\nsamples = 2\nvalue = 139750.0"] ;
665 -> 666 ;
667 [label="mse = 0.0\nsamples = 1\nvalue = 143000.0"] ;
666 -> 667 ;
668 [label="mse = 0.0\nsamples = 1\nvalue = 136500.0"] ;
666 -> 668 ;
669 [label="X[89] <= 0.581\nmse = 16846666.667\nsamples = 3\nvalue = 154300.0"] ;
665 -> 669 ;
670 [label="X[93] <= 0.819\nmse = 4202500.0\nsamples = 2\nvalue = 156950.0"] ;
669 -> 670 ;
671 [label="mse = 0.0\nsamples = 1\nvalue = 154900.0"] ;
670 -> 671 ;
672 [label="mse = 0.0\nsamples = 1\nvalue = 159000.0"] ;
670 -> 672 ;
673 [label="mse = 0.0\nsamples = 1\nvalue = 149000.0"] ;
669 -> 673 ;
674 [label="X[25] <= 0.5\nmse = 36166666.667\nsamples = 3\nvalue = 113000.0"] ;
654 -> 674 ;
675 [label="X[82] <= -0.312\nmse = 6250000.0\nsamples = 2\nvalue = 117000.0"] ;
674 -> 675 ;
676 [label="mse = 0.0\nsamples = 1\nvalue = 114500.0"] ;
675 -> 676 ;
677 [label="mse = 0.0\nsamples = 1\nvalue = 119500.0"] ;
675 -> 677 ;
678 [label="mse = 0.0\nsamples = 1\nvalue = 105000.0"] ;
674 -> 678 ;
679 [label="mse = 0.0\nsamples = 1\nvalue = 177000.0"] ;
653 -> 679 ;
680 [label="X[84] <= -0.812\nmse = 218722222.222\nsamples = 3\nvalue = 110666.667"] ;
652 -> 680 ;
681 [label="X[89] <= -0.033\nmse = 52562500.0\nsamples = 2\nvalue = 120250.0"] ;
680 -> 681 ;
682 [label="mse = 0.0\nsamples = 1\nvalue = 127500.0"] ;
681 -> 682 ;
683 [label="mse = 0.0\nsamples = 1\nvalue = 113000.0"] ;
681 -> 683 ;
684 [label="mse = 0.0\nsamples = 1\nvalue = 91500.0"] ;
680 -> 684 ;
685 [label="X[52] <= 0.5\nmse = 1220245208.006\nsamples = 65\nvalue = 98103.2"] ;
3 -> 685 ;
686 [label="X[87] <= -0.487\nmse = 1057976046.152\nsamples = 64\nvalue = 96432.938"] ;
685 -> 686 ;
687 [label="X[60] <= 0.5\nmse = 717441690.587\nsamples = 31\nvalue = 78029.161"] ;
686 -> 687 ;
688 [label="X[80] <= 0.5\nmse = 492666028.76\nsamples = 30\nvalue = 75196.8"] ;
687 -> 688 ;
689 [label="X[5] <= 0.5\nmse = 2250000.0\nsamples = 2\nvalue = 36400.0"] ;
688 -> 689 ;
690 [label="mse = 0.0\nsamples = 1\nvalue = 34900.0"] ;
689 -> 690 ;
691 [label="mse = 0.0\nsamples = 1\nvalue = 37900.0"] ;
689 -> 691 ;
692 [label="X[73] <= 0.5\nmse = 412502503.5\nsamples = 28\nvalue = 77968.0"] ;
688 -> 692 ;
693 [label="X[53] <= 0.5\nmse = 329919651.894\nsamples = 25\nvalue = 74384.16"] ;
692 -> 693 ;
694 [label="X[82] <= -0.283\nmse = 269971152.028\nsamples = 18\nvalue = 80322.833"] ;
693 -> 694 ;
695 [label="X[93] <= -1.755\nmse = 157394097.222\nsamples = 12\nvalue = 85041.667"] ;
694 -> 695 ;
696 [label="mse = 0.0\nsamples = 1\nvalue = 55000.0"] ;
695 -> 696 ;
697 [label="X[49] <= 0.5\nmse = 82198347.107\nsamples = 11\nvalue = 87772.727"] ;
695 -> 697 ;
698 [label="X[93] <= -0.284\nmse = 66412500.0\nsamples = 10\nvalue = 89250.0"] ;
697 -> 698 ;
699 [label="X[89] <= -1.261\nmse = 15440000.0\nsamples = 5\nvalue = 95600.0"] ;
698 -> 699 ;
700 [label="X[83] <= -0.958\nmse = 1000000.0\nsamples = 2\nvalue = 92000.0"] ;
699 -> 700 ;
701 [label="mse = 0.0\nsamples = 1\nvalue = 93000.0"] ;
700 -> 701 ;
702 [label="mse = 0.0\nsamples = 1\nvalue = 91000.0"] ;
700 -> 702 ;
703 [label="X[89] <= -0.647\nmse = 10666666.667\nsamples = 3\nvalue = 98000.0"] ;
699 -> 703 ;
704 [label="X[62] <= 0.5\nmse = 4000000.0\nsamples = 2\nvalue = 100000.0"] ;
703 -> 704 ;
705 [label="mse = 0.0\nsamples = 1\nvalue = 102000.0"] ;
704 -> 705 ;
706 [label="mse = 0.0\nsamples = 1\nvalue = 98000.0"] ;
704 -> 706 ;
707 [label="mse = 0.0\nsamples = 1\nvalue = 94000.0"] ;
703 -> 707 ;
708 [label="X[34] <= 0.5\nmse = 36740000.0\nsamples = 5\nvalue = 82900.0"] ;
698 -> 708 ;
709 [label="X[48] <= 0.5\nmse = 12125000.0\nsamples = 4\nvalue = 85500.0"] ;
708 -> 709 ;
710 [label="X[20] <= 0.5\nmse = 4000000.0\nsamples = 2\nvalue = 82500.0"] ;
709 -> 710 ;
711 [label="mse = 0.0\nsamples = 1\nvalue = 80500.0"] ;
710 -> 711 ;
712 [label="mse = 0.0\nsamples = 1\nvalue = 84500.0"] ;
710 -> 712 ;
713 [label="X[89] <= -0.647\nmse = 2250000.0\nsamples = 2\nvalue = 88500.0"] ;
709 -> 713 ;
714 [label="mse = 0.0\nsamples = 1\nvalue = 87000.0"] ;
713 -> 714 ;
715 [label="mse = 0.0\nsamples = 1\nvalue = 90000.0"] ;
713 -> 715 ;
716 [label="mse = 0.0\nsamples = 1\nvalue = 72500.0"] ;
708 -> 716 ;
717 [label="mse = 0.0\nsamples = 1\nvalue = 73000.0"] ;
697 -> 717 ;
718 [label="X[89] <= -1.261\nmse = 361520933.472\nsamples = 6\nvalue = 70885.167"] ;
694 -> 718 ;
719 [label="mse = 0.0\nsamples = 1\nvalue = 35311.0"] ;
718 -> 719 ;
720 [label="X[82] <= -0.216\nmse = 130100000.0\nsamples = 5\nvalue = 78000.0"] ;
718 -> 720 ;
721 [label="mse = 0.0\nsamples = 1\nvalue = 58500.0"] ;
720 -> 721 ;
722 [label="X[94] <= -0.619\nmse = 43796875.0\nsamples = 4\nvalue = 82875.0"] ;
720 -> 722 ;
723 [label="mse = 0.0\nsamples = 1\nvalue = 93500.0"] ;
722 -> 723 ;
724 [label="X[94] <= 1.248\nmse = 8222222.222\nsamples = 3\nvalue = 79333.333"] ;
722 -> 724 ;
725 [label="X[37] <= 0.5\nmse = 2250000.0\nsamples = 2\nvalue = 77500.0"] ;
724 -> 725 ;
726 [label="mse = 0.0\nsamples = 1\nvalue = 76000.0"] ;
725 -> 726 ;
727 [label="mse = 0.0\nsamples = 1\nvalue = 79000.0"] ;
725 -> 727 ;
728 [label="mse = 0.0\nsamples = 1\nvalue = 83000.0"] ;
724 -> 728 ;
729 [label="X[82] <= -0.497\nmse = 160184601.918\nsamples = 7\nvalue = 59113.286"] ;
693 -> 729 ;
730 [label="X[84] <= -0.911\nmse = 43560000.0\nsamples = 2\nvalue = 45900.0"] ;
729 -> 730 ;
731 [label="mse = 0.0\nsamples = 1\nvalue = 52500.0"] ;
730 -> 731 ;
732 [label="mse = 0.0\nsamples = 1\nvalue = 39300.0"] ;
730 -> 732 ;
733 [label="X[84] <= -1.772\nmse = 109063527.84\nsamples = 5\nvalue = 64398.6"] ;
729 -> 733 ;
734 [label="mse = 0.0\nsamples = 1\nvalue = 85000.0"] ;
733 -> 734 ;
735 [label="X[93] <= -0.652\nmse = 3698884.188\nsamples = 4\nvalue = 59248.25"] ;
733 -> 735 ;
736 [label="X[93] <= -1.571\nmse = 222222.222\nsamples = 3\nvalue = 60333.333"] ;
735 -> 736 ;
737 [label="mse = 0.0\nsamples = 2\nvalue = 60000.0"] ;
736 -> 737 ;
738 [label="mse = 0.0\nsamples = 1\nvalue = 61000.0"] ;
736 -> 738 ;
739 [label="mse = 0.0\nsamples = 1\nvalue = 55993.0"] ;
735 -> 739 ;
740 [label="X[83] <= -0.061\nmse = 101722222.222\nsamples = 3\nvalue = 107833.333"] ;
692 -> 740 ;
741 [label="X[88] <= 4.309\nmse = 22562500.0\nsamples = 2\nvalue = 101250.0"] ;
740 -> 741 ;
742 [label="mse = 0.0\nsamples = 1\nvalue = 96500.0"] ;
741 -> 742 ;
743 [label="mse = 0.0\nsamples = 1\nvalue = 106000.0"] ;
741 -> 743 ;
744 [label="mse = 0.0\nsamples = 1\nvalue = 121000.0"] ;
740 -> 744 ;
745 [label="mse = 0.0\nsamples = 1\nvalue = 163000.0"] ;
687 -> 745 ;
746 [label="X[89] <= -0.033\nmse = 760811557.495\nsamples = 33\nvalue = 113721.333"] ;
686 -> 746 ;
747 [label="X[82] <= -0.026\nmse = 728208400.0\nsamples = 10\nvalue = 96260.0"] ;
746 -> 747 ;
748 [label="X[53] <= 0.5\nmse = 548264375.0\nsamples = 8\nvalue = 87825.0"] ;
747 -> 748 ;
749 [label="X[20] <= 0.5\nmse = 363072653.061\nsamples = 7\nvalue = 82085.714"] ;
748 -> 749 ;
750 [label="X[84] <= -1.656\nmse = 79183333.333\nsamples = 6\nvalue = 89100.0"] ;
749 -> 750 ;
751 [label="X[94] <= -0.246\nmse = 250000.0\nsamples = 2\nvalue = 78500.0"] ;
750 -> 751 ;
752 [label="mse = 0.0\nsamples = 1\nvalue = 79000.0"] ;
751 -> 752 ;
753 [label="mse = 0.0\nsamples = 1\nvalue = 78000.0"] ;
751 -> 753 ;
754 [label="X[94] <= 0.501\nmse = 34380000.0\nsamples = 4\nvalue = 94400.0"] ;
750 -> 754 ;
755 [label="X[89] <= -0.647\nmse = 8222222.222\nsamples = 3\nvalue = 91333.333"] ;
754 -> 755 ;
756 [label="mse = 0.0\nsamples = 1\nvalue = 95000.0"] ;
755 -> 756 ;
757 [label="X[14] <= 0.5\nmse = 2250000.0\nsamples = 2\nvalue = 89500.0"] ;
755 -> 757 ;
758 [label="mse = 0.0\nsamples = 1\nvalue = 91000.0"] ;
757 -> 758 ;
759 [label="mse = 0.0\nsamples = 1\nvalue = 88000.0"] ;
757 -> 759 ;
760 [label="mse = 0.0\nsamples = 1\nvalue = 103600.0"] ;
754 -> 760 ;
761 [label="mse = 0.0\nsamples = 1\nvalue = 40000.0"] ;
749 -> 761 ;
762 [label="mse = 0.0\nsamples = 1\nvalue = 128000.0"] ;
748 -> 762 ;
763 [label="X[93] <= 1.37\nmse = 25000000.0\nsamples = 2\nvalue = 130000.0"] ;
747 -> 763 ;
764 [label="mse = 0.0\nsamples = 1\nvalue = 125000.0"] ;
763 -> 764 ;
765 [label="mse = 0.0\nsamples = 1\nvalue = 135000.0"] ;
763 -> 765 ;
766 [label="X[94] <= 0.501\nmse = 584785721.648\nsamples = 23\nvalue = 121313.217"] ;
746 -> 766 ;
767 [label="X[0] <= 0.5\nmse = 384879881.855\nsamples = 17\nvalue = 128576.706"] ;
766 -> 767 ;
768 [label="X[82] <= -0.009\nmse = 145473333.333\nsamples = 9\nvalue = 142533.333"] ;
767 -> 768 ;
769 [label="X[16] <= 0.5\nmse = 54246938.776\nsamples = 7\nvalue = 137114.286"] ;
768 -> 769 ;
770 [label="X[93] <= -0.284\nmse = 14753600.0\nsamples = 5\nvalue = 140780.0"] ;
769 -> 770 ;
771 [label="X[40] <= 0.5\nmse = 302500.0\nsamples = 2\nvalue = 136450.0"] ;
770 -> 771 ;
772 [label="mse = 0.0\nsamples = 1\nvalue = 137000.0"] ;
771 -> 772 ;
773 [label="mse = 0.0\nsamples = 1\nvalue = 135900.0"] ;
771 -> 773 ;
774 [label="X[83] <= -0.51\nmse = 3555555.556\nsamples = 3\nvalue = 143666.667"] ;
770 -> 774 ;
775 [label="mse = 0.0\nsamples = 1\nvalue = 141000.0"] ;
774 -> 775 ;
776 [label="mse = 0.0\nsamples = 2\nvalue = 145000.0"] ;
774 -> 776 ;
777 [label="X[48] <= 0.5\nmse = 35402500.0\nsamples = 2\nvalue = 127950.0"] ;
769 -> 777 ;
778 [label="mse = 0.0\nsamples = 1\nvalue = 133900.0"] ;
777 -> 778 ;
779 [label="mse = 0.0\nsamples = 1\nvalue = 122000.0"] ;
777 -> 779 ;
780 [label="X[66] <= 0.5\nmse = 2250000.0\nsamples = 2\nvalue = 161500.0"] ;
768 -> 780 ;
781 [label="mse = 0.0\nsamples = 1\nvalue = 160000.0"] ;
780 -> 781 ;
782 [label="mse = 0.0\nsamples = 1\nvalue = 163000.0"] ;
780 -> 782 ;
783 [label="X[82] <= -0.148\nmse = 188548501.75\nsamples = 8\nvalue = 112875.5"] ;
767 -> 783 ;
784 [label="X[86] <= 0.232\nmse = 106050668.889\nsamples = 6\nvalue = 118167.333"] ;
783 -> 784 ;
785 [label="X[89] <= 0.581\nmse = 84565003.0\nsamples = 4\nvalue = 113251.0"] ;
784 -> 785 ;
786 [label="X[91] <= 0.321\nmse = 68095504.0\nsamples = 2\nvalue = 106252.0"] ;
785 -> 786 ;
787 [label="mse = 0.0\nsamples = 1\nvalue = 114504.0"] ;
786 -> 787 ;
788 [label="mse = 0.0\nsamples = 1\nvalue = 98000.0"] ;
786 -> 788 ;
789 [label="X[93] <= 0.451\nmse = 3062500.0\nsamples = 2\nvalue = 120250.0"] ;
785 -> 789 ;
790 [label="mse = 0.0\nsamples = 1\nvalue = 118500.0"] ;
789 -> 790 ;
791 [label="mse = 0.0\nsamples = 1\nvalue = 122000.0"] ;
789 -> 791 ;
792 [label="X[84] <= -1.507\nmse = 4000000.0\nsamples = 2\nvalue = 128000.0"] ;
784 -> 792 ;
793 [label="mse = 0.0\nsamples = 1\nvalue = 130000.0"] ;
792 -> 793 ;
794 [label="mse = 0.0\nsamples = 1\nvalue = 126000.0"] ;
792 -> 794 ;
795 [label="X[88] <= 2.051\nmse = 100000000.0\nsamples = 2\nvalue = 97000.0"] ;
783 -> 795 ;
796 [label="mse = 0.0\nsamples = 1\nvalue = 107000.0"] ;
795 -> 796 ;
797 [label="mse = 0.0\nsamples = 1\nvalue = 87000.0"] ;
795 -> 797 ;
798 [label="X[89] <= 0.581\nmse = 578172222.222\nsamples = 6\nvalue = 100733.333"] ;
766 -> 798 ;
799 [label="mse = 0.0\nsamples = 1\nvalue = 55000.0"] ;
798 -> 799 ;
800 [label="X[16] <= 0.5\nmse = 191837600.0\nsamples = 5\nvalue = 109880.0"] ;
798 -> 800 ;
801 [label="X[93] <= -0.652\nmse = 19846666.667\nsamples = 3\nvalue = 104300.0"] ;
800 -> 801 ;
802 [label="mse = 0.0\nsamples = 1\nvalue = 98000.0"] ;
801 -> 802 ;
803 [label="X[68] <= 0.5\nmse = 2500.0\nsamples = 2\nvalue = 107450.0"] ;
801 -> 803 ;
804 [label="mse = 0.0\nsamples = 1\nvalue = 107400.0"] ;
803 -> 804 ;
805 [label="mse = 0.0\nsamples = 1\nvalue = 107500.0"] ;
803 -> 805 ;
806 [label="X[93] <= -0.652\nmse = 333062500.0\nsamples = 2\nvalue = 118250.0"] ;
800 -> 806 ;
807 [label="mse = 0.0\nsamples = 1\nvalue = 136500.0"] ;
806 -> 807 ;
808 [label="mse = 0.0\nsamples = 1\nvalue = 100000.0"] ;
806 -> 808 ;
809 [label="mse = 0.0\nsamples = 1\nvalue = 205000.0"] ;
685 -> 809 ;
810 [label="X[31] <= 0.5\nmse = 1948806373.788\nsamples = 78\nvalue = 156261.859"] ;
2 -> 810 ;
811 [label="X[58] <= 0.5\nmse = 1254952743.479\nsamples = 73\nvalue = 151008.562"] ;
810 -> 811 ;
812 [label="X[15] <= 0.5\nmse = 899786703.601\nsamples = 19\nvalue = 179947.368"] ;
811 -> 812 ;
813 [label="X[91] <= -0.36\nmse = 578652006.173\nsamples = 18\nvalue = 175527.778"] ;
812 -> 813 ;
814 [label="X[89] <= -0.647\nmse = 201312500.0\nsamples = 4\nvalue = 153750.0"] ;
813 -> 814 ;
815 [label="mse = 0.0\nsamples = 1\nvalue = 130500.0"] ;
814 -> 815 ;
816 [label="X[7] <= 0.5\nmse = 28166666.667\nsamples = 3\nvalue = 161500.0"] ;
814 -> 816 ;
817 [label="X[64] <= 0.5\nmse = 62500.0\nsamples = 2\nvalue = 165250.0"] ;
816 -> 817 ;
818 [label="mse = 0.0\nsamples = 1\nvalue = 165000.0"] ;
817 -> 818 ;
819 [label="mse = 0.0\nsamples = 1\nvalue = 165500.0"] ;
817 -> 819 ;
820 [label="mse = 0.0\nsamples = 1\nvalue = 154000.0"] ;
816 -> 820 ;
821 [label="X[62] <= 0.5\nmse = 512241071.429\nsamples = 14\nvalue = 181750.0"] ;
813 -> 821 ;
822 [label="X[83] <= -0.061\nmse = 126562500.0\nsamples = 2\nvalue = 146250.0"] ;
821 -> 822 ;
823 [label="mse = 0.0\nsamples = 1\nvalue = 135000.0"] ;
822 -> 823 ;
824 [label="mse = 0.0\nsamples = 1\nvalue = 157500.0"] ;
822 -> 824 ;
825 [label="X[84] <= 0.132\nmse = 331472222.222\nsamples = 12\nvalue = 187666.667"] ;
821 -> 825 ;
826 [label="X[93] <= 1.003\nmse = 172368055.556\nsamples = 6\nvalue = 177083.333"] ;
825 -> 826 ;
827 [label="X[14] <= 0.5\nmse = 110040000.0\nsamples = 5\nvalue = 181100.0"] ;
826 -> 827 ;
828 [label="X[44] <= 0.5\nmse = 46500000.0\nsamples = 3\nvalue = 188500.0"] ;
827 -> 828 ;
829 [label="X[82] <= -0.06\nmse = 9000000.0\nsamples = 2\nvalue = 184000.0"] ;
828 -> 829 ;
830 [label="mse = 0.0\nsamples = 1\nvalue = 187000.0"] ;
829 -> 830 ;
831 [label="mse = 0.0\nsamples = 1\nvalue = 181000.0"] ;
829 -> 831 ;
832 [label="mse = 0.0\nsamples = 1\nvalue = 197500.0"] ;
828 -> 832 ;
833 [label="mse = 0.0\nsamples = 2\nvalue = 170000.0"] ;
827 -> 833 ;
834 [label="mse = 0.0\nsamples = 1\nvalue = 157000.0"] ;
826 -> 834 ;
835 [label="X[85] <= -0.126\nmse = 266562500.0\nsamples = 6\nvalue = 198250.0"] ;
825 -> 835 ;
836 [label="mse = 0.0\nsamples = 1\nvalue = 165500.0"] ;
835 -> 836 ;
837 [label="X[86] <= 0.232\nmse = 62460000.0\nsamples = 5\nvalue = 204800.0"] ;
835 -> 837 ;
838 [label="X[23] <= 0.5\nmse = 61421875.0\nsamples = 4\nvalue = 206625.0"] ;
837 -> 838 ;
839 [label="mse = 0.0\nsamples = 1\nvalue = 218000.0"] ;
838 -> 839 ;
840 [label="X[44] <= 0.5\nmse = 24388888.889\nsamples = 3\nvalue = 202833.333"] ;
838 -> 840 ;
841 [label="X[7] <= 0.5\nmse = 1562500.0\nsamples = 2\nvalue = 206250.0"] ;
840 -> 841 ;
842 [label="mse = 0.0\nsamples = 1\nvalue = 207500.0"] ;
841 -> 842 ;
843 [label="mse = 0.0\nsamples = 1\nvalue = 205000.0"] ;
841 -> 843 ;
844 [label="mse = 0.0\nsamples = 1\nvalue = 196000.0"] ;
840 -> 844 ;
845 [label="mse = 0.0\nsamples = 1\nvalue = 197500.0"] ;
837 -> 845 ;
846 [label="mse = 0.0\nsamples = 1\nvalue = 259500.0"] ;
812 -> 846 ;
847 [label="X[86] <= 0.232\nmse = 981582000.386\nsamples = 54\nvalue = 140826.389"] ;
811 -> 847 ;
848 [label="X[82] <= -0.146\nmse = 516145746.579\nsamples = 41\nvalue = 131700.61"] ;
847 -> 848 ;
849 [label="X[42] <= 0.5\nmse = 358507330.995\nsamples = 28\nvalue = 123141.071"] ;
848 -> 849 ;
850 [label="X[87] <= -1.73\nmse = 317134444.444\nsamples = 18\nvalue = 117733.333"] ;
849 -> 850 ;
851 [label="mse = 0.0\nsamples = 1\nvalue = 86000.0"] ;
850 -> 851 ;
852 [label="X[48] <= 0.5\nmse = 273069411.765\nsamples = 17\nvalue = 119600.0"] ;
850 -> 852 ;
853 [label="X[93] <= 1.922\nmse = 272078488.889\nsamples = 15\nvalue = 117586.667"] ;
852 -> 853 ;
854 [label="X[88] <= 2.051\nmse = 225302653.061\nsamples = 14\nvalue = 115485.714"] ;
853 -> 854 ;
855 [label="X[5] <= 0.5\nmse = 200748994.083\nsamples = 13\nvalue = 117215.385"] ;
854 -> 855 ;
856 [label="X[82] <= -0.555\nmse = 200491735.537\nsamples = 11\nvalue = 114890.909"] ;
855 -> 856 ;
857 [label="mse = 0.0\nsamples = 1\nvalue = 79000.0"] ;
856 -> 857 ;
858 [label="X[24] <= 0.5\nmse = 78843600.0\nsamples = 10\nvalue = 118480.0"] ;
856 -> 858 ;
859 [label="X[21] <= 0.5\nmse = 74722343.75\nsamples = 8\nvalue = 120662.5"] ;
858 -> 859 ;
860 [label="X[84] <= -0.712\nmse = 71568055.556\nsamples = 6\nvalue = 122883.333"] ;
859 -> 860 ;
861 [label="mse = 0.0\nsamples = 1\nvalue = 108000.0"] ;
860 -> 861 ;
862 [label="X[94] <= 1.248\nmse = 32718400.0\nsamples = 5\nvalue = 125860.0"] ;
860 -> 862 ;
863 [label="X[14] <= 0.5\nmse = 15921875.0\nsamples = 4\nvalue = 123625.0"] ;
862 -> 863 ;
864 [label="mse = 0.0\nsamples = 1\nvalue = 130000.0"] ;
863 -> 864 ;
865 [label="X[90] <= -0.166\nmse = 3166666.667\nsamples = 3\nvalue = 121500.0"] ;
863 -> 865 ;
866 [label="X[94] <= -0.246\nmse = 62500.0\nsamples = 2\nvalue = 120250.0"] ;
865 -> 866 ;
867 [label="mse = 0.0\nsamples = 1\nvalue = 120000.0"] ;
866 -> 867 ;
868 [label="mse = 0.0\nsamples = 1\nvalue = 120500.0"] ;
866 -> 868 ;
869 [label="mse = 0.0\nsamples = 1\nvalue = 124000.0"] ;
865 -> 869 ;
870 [label="mse = 0.0\nsamples = 1\nvalue = 134800.0"] ;
862 -> 870 ;
871 [label="X[66] <= 0.5\nmse = 25000000.0\nsamples = 2\nvalue = 114000.0"] ;
859 -> 871 ;
872 [label="mse = 0.0\nsamples = 1\nvalue = 119000.0"] ;
871 -> 872 ;
873 [label="mse = 0.0\nsamples = 1\nvalue = 109000.0"] ;
871 -> 873 ;
874 [label="X[47] <= 0.5\nmse = 62500.0\nsamples = 2\nvalue = 109750.0"] ;
858 -> 874 ;
875 [label="mse = 0.0\nsamples = 1\nvalue = 109500.0"] ;
874 -> 875 ;
876 [label="mse = 0.0\nsamples = 1\nvalue = 110000.0"] ;
874 -> 876 ;
877 [label="X[82] <= -0.497\nmse = 9000000.0\nsamples = 2\nvalue = 130000.0"] ;
855 -> 877 ;
878 [label="mse = 0.0\nsamples = 1\nvalue = 127000.0"] ;
877 -> 878 ;
879 [label="mse = 0.0\nsamples = 1\nvalue = 133000.0"] ;
877 -> 879 ;
880 [label="mse = 0.0\nsamples = 1\nvalue = 93000.0"] ;
854 -> 880 ;
881 [label="mse = 0.0\nsamples = 1\nvalue = 147000.0"] ;
853 -> 881 ;
882 [label="X[84] <= -0.894\nmse = 22090000.0\nsamples = 2\nvalue = 134700.0"] ;
852 -> 882 ;
883 [label="mse = 0.0\nsamples = 1\nvalue = 139400.0"] ;
882 -> 883 ;
884 [label="mse = 0.0\nsamples = 1\nvalue = 130000.0"] ;
882 -> 884 ;
885 [label="X[6] <= 0.5\nmse = 285590625.0\nsamples = 10\nvalue = 132875.0"] ;
849 -> 885 ;
886 [label="X[94] <= -0.993\nmse = 224805555.556\nsamples = 9\nvalue = 135916.667"] ;
885 -> 886 ;
887 [label="mse = 0.0\nsamples = 1\nvalue = 110500.0"] ;
886 -> 887 ;
888 [label="X[79] <= 0.5\nmse = 162061523.438\nsamples = 8\nvalue = 139093.75"] ;
886 -> 888 ;
889 [label="X[47] <= 0.5\nmse = 98140306.122\nsamples = 7\nvalue = 142392.857"] ;
888 -> 889 ;
890 [label="X[87] <= -0.487\nmse = 96550347.222\nsamples = 6\nvalue = 140791.667"] ;
889 -> 890 ;
891 [label="mse = 0.0\nsamples = 1\nvalue = 134500.0"] ;
890 -> 891 ;
892 [label="X[69] <= 0.5\nmse = 106360000.0\nsamples = 5\nvalue = 142050.0"] ;
890 -> 892 ;
893 [label="X[84] <= -0.381\nmse = 182250000.0\nsamples = 2\nvalue = 142500.0"] ;
892 -> 893 ;
894 [label="mse = 0.0\nsamples = 1\nvalue = 129000.0"] ;
893 -> 894 ;
895 [label="mse = 0.0\nsamples = 1\nvalue = 156000.0"] ;
893 -> 895 ;
896 [label="X[91] <= -0.36\nmse = 55541666.667\nsamples = 3\nvalue = 141750.0"] ;
892 -> 896 ;
897 [label="X[89] <= -0.647\nmse = 22562500.0\nsamples = 2\nvalue = 137250.0"] ;
896 -> 897 ;
898 [label="mse = 0.0\nsamples = 1\nvalue = 142000.0"] ;
897 -> 898 ;
899 [label="mse = 0.0\nsamples = 1\nvalue = 132500.0"] ;
897 -> 899 ;
900 [label="mse = 0.0\nsamples = 1\nvalue = 150750.0"] ;
896 -> 900 ;
901 [label="mse = 0.0\nsamples = 1\nvalue = 152000.0"] ;
889 -> 901 ;
902 [label="mse = 0.0\nsamples = 1\nvalue = 116000.0"] ;
888 -> 902 ;
903 [label="mse = 0.0\nsamples = 1\nvalue = 105500.0"] ;
885 -> 903 ;
904 [label="X[26] <= 0.5\nmse = 357988136.095\nsamples = 13\nvalue = 150136.538"] ;
848 -> 904 ;
905 [label="X[69] <= 0.5\nmse = 290653667.355\nsamples = 11\nvalue = 145715.909"] ;
904 -> 905 ;
906 [label="X[90] <= -0.166\nmse = 434949218.75\nsamples = 4\nvalue = 155437.5"] ;
905 -> 906 ;
907 [label="X[42] <= 0.5\nmse = 49000000.0\nsamples = 2\nvalue = 137000.0"] ;
906 -> 907 ;
908 [label="mse = 0.0\nsamples = 1\nvalue = 130000.0"] ;
907 -> 908 ;
909 [label="mse = 0.0\nsamples = 1\nvalue = 144000.0"] ;
907 -> 909 ;
910 [label="X[94] <= 1.248\nmse = 141015625.0\nsamples = 2\nvalue = 173875.0"] ;
906 -> 910 ;
911 [label="mse = 0.0\nsamples = 1\nvalue = 185750.0"] ;
910 -> 911 ;
912 [label="mse = 0.0\nsamples = 1\nvalue = 162000.0"] ;
910 -> 912 ;
913 [label="X[83] <= 2.182\nmse = 123333545.918\nsamples = 7\nvalue = 140160.714"] ;
905 -> 913 ;
914 [label="X[44] <= 0.5\nmse = 59446614.583\nsamples = 6\nvalue = 136687.5"] ;
913 -> 914 ;
915 [label="X[16] <= 0.5\nmse = 5420138.889\nsamples = 3\nvalue = 143708.333"] ;
914 -> 915 ;
916 [label="mse = 0.0\nsamples = 1\nvalue = 147000.0"] ;
915 -> 916 ;
917 [label="X[47] <= 0.5\nmse = 3906.25\nsamples = 2\nvalue = 142062.5"] ;
915 -> 917 ;
918 [label="mse = 0.0\nsamples = 1\nvalue = 142000.0"] ;
917 -> 918 ;
919 [label="mse = 0.0\nsamples = 1\nvalue = 142125.0"] ;
917 -> 919 ;
920 [label="X[84] <= -0.712\nmse = 14888888.889\nsamples = 3\nvalue = 129666.667"] ;
914 -> 920 ;
921 [label="mse = 0.0\nsamples = 1\nvalue = 135000.0"] ;
920 -> 921 ;
922 [label="X[2] <= 0.5\nmse = 1000000.0\nsamples = 2\nvalue = 127000.0"] ;
920 -> 922 ;
923 [label="mse = 0.0\nsamples = 1\nvalue = 128000.0"] ;
922 -> 923 ;
924 [label="mse = 0.0\nsamples = 1\nvalue = 126000.0"] ;
922 -> 924 ;
925 [label="mse = 0.0\nsamples = 1\nvalue = 161000.0"] ;
913 -> 925 ;
926 [label="X[66] <= 0.5\nmse = 29702500.0\nsamples = 2\nvalue = 174450.0"] ;
904 -> 926 ;
927 [label="mse = 0.0\nsamples = 1\nvalue = 179900.0"] ;
926 -> 927 ;
928 [label="mse = 0.0\nsamples = 1\nvalue = 169000.0"] ;
926 -> 928 ;
929 [label="X[89] <= 1.195\nmse = 1358481094.675\nsamples = 13\nvalue = 169607.692"] ;
847 -> 929 ;
930 [label="X[89] <= -0.647\nmse = 411023958.333\nsamples = 12\nvalue = 160575.0"] ;
929 -> 930 ;
931 [label="mse = 0.0\nsamples = 1\nvalue = 118000.0"] ;
930 -> 931 ;
932 [label="X[87] <= 0.757\nmse = 268624752.066\nsamples = 11\nvalue = 164445.455"] ;
930 -> 932 ;
933 [label="X[40] <= 0.5\nmse = 284605612.245\nsamples = 7\nvalue = 158128.571"] ;
932 -> 933 ;
934 [label="X[82] <= -0.173\nmse = 270119218.75\nsamples = 4\nvalue = 167237.5"] ;
933 -> 934 ;
935 [label="X[24] <= 0.5\nmse = 63600625.0\nsamples = 2\nvalue = 181975.0"] ;
934 -> 935 ;
936 [label="mse = 0.0\nsamples = 1\nvalue = 174000.0"] ;
935 -> 936 ;
937 [label="mse = 0.0\nsamples = 1\nvalue = 189950.0"] ;
935 -> 937 ;
938 [label="X[80] <= 0.5\nmse = 42250000.0\nsamples = 2\nvalue = 152500.0"] ;
934 -> 938 ;
939 [label="mse = 0.0\nsamples = 1\nvalue = 159000.0"] ;
938 -> 939 ;
940 [label="mse = 0.0\nsamples = 1\nvalue = 146000.0"] ;
938 -> 940 ;
941 [label="X[62] <= 0.5\nmse = 45783888.889\nsamples = 3\nvalue = 145983.333"] ;
933 -> 941 ;
942 [label="mse = 0.0\nsamples = 1\nvalue = 137450.0"] ;
941 -> 942 ;
943 [label="X[68] <= 0.5\nmse = 14062500.0\nsamples = 2\nvalue = 150250.0"] ;
941 -> 943 ;
944 [label="mse = 0.0\nsamples = 1\nvalue = 146500.0"] ;
943 -> 944 ;
945 [label="mse = 0.0\nsamples = 1\nvalue = 154000.0"] ;
943 -> 945 ;
946 [label="X[82] <= -0.178\nmse = 48625000.0\nsamples = 4\nvalue = 175500.0"] ;
932 -> 946 ;
947 [label="X[25] <= 0.5\nmse = 5062500.0\nsamples = 2\nvalue = 181750.0"] ;
946 -> 947 ;
948 [label="mse = 0.0\nsamples = 1\nvalue = 179500.0"] ;
947 -> 948 ;
949 [label="mse = 0.0\nsamples = 1\nvalue = 184000.0"] ;
947 -> 949 ;
950 [label="X[83] <= 0.836\nmse = 14062500.0\nsamples = 2\nvalue = 169250.0"] ;
946 -> 950 ;
951 [label="mse = 0.0\nsamples = 1\nvalue = 165500.0"] ;
950 -> 951 ;
952 [label="mse = 0.0\nsamples = 1\nvalue = 173000.0"] ;
950 -> 952 ;
953 [label="mse = 0.0\nsamples = 1\nvalue = 278000.0"] ;
929 -> 953 ;
954 [label="X[85] <= -0.126\nmse = 5793546400.0\nsamples = 5\nvalue = 232960.0"] ;
810 -> 954 ;
955 [label="X[93] <= -0.1\nmse = 3062500.0\nsamples = 2\nvalue = 141750.0"] ;
954 -> 955 ;
956 [label="mse = 0.0\nsamples = 1\nvalue = 140000.0"] ;
955 -> 956 ;
957 [label="mse = 0.0\nsamples = 1\nvalue = 143500.0"] ;
955 -> 957 ;
958 [label="X[80] <= 0.5\nmse = 410242222.222\nsamples = 3\nvalue = 293766.667"] ;
954 -> 958 ;
959 [label="mse = 0.0\nsamples = 1\nvalue = 266500.0"] ;
958 -> 959 ;
960 [label="X[66] <= 0.5\nmse = 57760000.0\nsamples = 2\nvalue = 307400.0"] ;
958 -> 960 ;
961 [label="mse = 0.0\nsamples = 1\nvalue = 299800.0"] ;
960 -> 961 ;
962 [label="mse = 0.0\nsamples = 1\nvalue = 315000.0"] ;
960 -> 962 ;
963 [label="X[90] <= -0.166\nmse = 3608365068.674\nsamples = 177\nvalue = 183500.667"] ;
1 -> 963 ;
964 [label="X[83] <= -0.958\nmse = 799881295.125\nsamples = 52\nvalue = 142883.404"] ;
963 -> 964 ;
965 [label="X[84] <= -0.331\nmse = 657979166.667\nsamples = 6\nvalue = 106250.0"] ;
964 -> 965 ;
966 [label="X[2] <= 0.5\nmse = 249687500.0\nsamples = 4\nvalue = 90750.0"] ;
965 -> 966 ;
967 [label="X[21] <= 0.5\nmse = 2888888.889\nsamples = 3\nvalue = 81666.667"] ;
966 -> 967 ;
968 [label="X[94] <= 0.874\nmse = 250000.0\nsamples = 2\nvalue = 80500.0"] ;
967 -> 968 ;
969 [label="mse = 0.0\nsamples = 1\nvalue = 81000.0"] ;
968 -> 969 ;
970 [label="mse = 0.0\nsamples = 1\nvalue = 80000.0"] ;
968 -> 970 ;
971 [label="mse = 0.0\nsamples = 1\nvalue = 84000.0"] ;
967 -> 971 ;
972 [label="mse = 0.0\nsamples = 1\nvalue = 118000.0"] ;
966 -> 972 ;
973 [label="X[1] <= 0.5\nmse = 33062500.0\nsamples = 2\nvalue = 137250.0"] ;
965 -> 973 ;
974 [label="mse = 0.0\nsamples = 1\nvalue = 143000.0"] ;
973 -> 974 ;
975 [label="mse = 0.0\nsamples = 1\nvalue = 131500.0"] ;
973 -> 975 ;
976 [label="X[84] <= -2.186\nmse = 620514106.524\nsamples = 46\nvalue = 147661.674"] ;
964 -> 976 ;
977 [label="X[93] <= 0.083\nmse = 264062500.0\nsamples = 2\nvalue = 106250.0"] ;
976 -> 977 ;
978 [label="mse = 0.0\nsamples = 1\nvalue = 122500.0"] ;
977 -> 978 ;
979 [label="mse = 0.0\nsamples = 1\nvalue = 90000.0"] ;
977 -> 979 ;
980 [label="X[85] <= -0.126\nmse = 555221999.931\nsamples = 44\nvalue = 149544.023"] ;
976 -> 980 ;
981 [label="X[52] <= 0.5\nmse = 274794103.558\nsamples = 27\nvalue = 141245.815"] ;
980 -> 981 ;
982 [label="X[66] <= 0.5\nmse = 230227450.925\nsamples = 26\nvalue = 139816.808"] ;
981 -> 982 ;
983 [label="X[44] <= 0.5\nmse = 108066224.49\nsamples = 14\nvalue = 146364.286"] ;
982 -> 983 ;
984 [label="X[82] <= 0.321\nmse = 70625468.75\nsamples = 4\nvalue = 140012.5"] ;
983 -> 984 ;
985 [label="mse = 0.0\nsamples = 1\nvalue = 154000.0"] ;
984 -> 985 ;
986 [label="X[84] <= -0.166\nmse = 7211666.667\nsamples = 3\nvalue = 135350.0"] ;
984 -> 986 ;
987 [label="X[83] <= -0.061\nmse = 1890625.0\nsamples = 2\nvalue = 133625.0"] ;
986 -> 987 ;
988 [label="mse = 0.0\nsamples = 1\nvalue = 132250.0"] ;
987 -> 988 ;
989 [label="mse = 0.0\nsamples = 1\nvalue = 135000.0"] ;
987 -> 989 ;
990 [label="mse = 0.0\nsamples = 1\nvalue = 138800.0"] ;
986 -> 990 ;
991 [label="X[93] <= 0.819\nmse = 100449225.0\nsamples = 10\nvalue = 148905.0"] ;
983 -> 991 ;
992 [label="X[91] <= 1.003\nmse = 91166523.438\nsamples = 8\nvalue = 151506.25"] ;
991 -> 992 ;
993 [label="X[26] <= 0.5\nmse = 48952755.102\nsamples = 7\nvalue = 148878.571"] ;
992 -> 993 ;
994 [label="X[69] <= 0.5\nmse = 22308680.556\nsamples = 6\nvalue = 151108.333"] ;
993 -> 994 ;
995 [label="X[23] <= 0.5\nmse = 9041666.667\nsamples = 3\nvalue = 147250.0"] ;
994 -> 995 ;
996 [label="mse = 0.0\nsamples = 1\nvalue = 151500.0"] ;
995 -> 996 ;
997 [label="X[68] <= 0.5\nmse = 15625.0\nsamples = 2\nvalue = 145125.0"] ;
995 -> 997 ;
998 [label="mse = 0.0\nsamples = 1\nvalue = 145000.0"] ;
997 -> 998 ;
999 [label="mse = 0.0\nsamples = 1\nvalue = 145250.0"] ;
997 -> 999 ;
1000 [label="X[87] <= 0.757\nmse = 5802222.222\nsamples = 3\nvalue = 154966.667"] ;
994 -> 1000 ;
1001 [label="X[94] <= 1.248\nmse = 2102500.0\nsamples = 2\nvalue = 156450.0"] ;
1000 -> 1001 ;
1002 [label="mse = 0.0\nsamples = 1\nvalue = 155000.0"] ;
1001 -> 1002 ;
1003 [label="mse = 0.0\nsamples = 1\nvalue = 157900.0"] ;
1001 -> 1003 ;
1004 [label="mse = 0.0\nsamples = 1\nvalue = 152000.0"] ;
1000 -> 1004 ;
1005 [label="mse = 0.0\nsamples = 1\nvalue = 135500.0"] ;
993 -> 1005 ;
1006 [label="mse = 0.0\nsamples = 1\nvalue = 169900.0"] ;
992 -> 1006 ;
1007 [label="X[62] <= 0.5\nmse = 2250000.0\nsamples = 2\nvalue = 138500.0"] ;
991 -> 1007 ;
1008 [label="mse = 0.0\nsamples = 1\nvalue = 140000.0"] ;
1007 -> 1008 ;
1009 [label="mse = 0.0\nsamples = 1\nvalue = 137000.0"] ;
1007 -> 1009 ;
1010 [label="X[93] <= 1.186\nmse = 264384392.076\nsamples = 12\nvalue = 132178.083"] ;
982 -> 1010 ;
1011 [label="X[80] <= 0.5\nmse = 164686662.727\nsamples = 11\nvalue = 128967.0"] ;
1010 -> 1011 ;
1012 [label="X[94] <= 0.501\nmse = 680555.556\nsamples = 3\nvalue = 111083.333"] ;
1011 -> 1012 ;
1013 [label="X[79] <= 0.5\nmse = 140625.0\nsamples = 2\nvalue = 111625.0"] ;
1012 -> 1013 ;
1014 [label="mse = 0.0\nsamples = 1\nvalue = 111250.0"] ;
1013 -> 1014 ;
1015 [label="mse = 0.0\nsamples = 1\nvalue = 112000.0"] ;
1013 -> 1015 ;
1016 [label="mse = 0.0\nsamples = 1\nvalue = 110000.0"] ;
1012 -> 1016 ;
1017 [label="X[11] <= 0.5\nmse = 61278912.234\nsamples = 8\nvalue = 135673.375"] ;
1011 -> 1017 ;
1018 [label="X[82] <= 0.21\nmse = 45225583.959\nsamples = 7\nvalue = 133912.429"] ;
1017 -> 1018 ;
1019 [label="X[71] <= 0.5\nmse = 4296875.0\nsamples = 4\nvalue = 128375.0"] ;
1018 -> 1019 ;
1020 [label="X[40] <= 0.5\nmse = 666666.667\nsamples = 3\nvalue = 129500.0"] ;
1019 -> 1020 ;
1021 [label="mse = 0.0\nsamples = 1\nvalue = 128500.0"] ;
1020 -> 1021 ;
1022 [label="X[84] <= -0.514\nmse = 250000.0\nsamples = 2\nvalue = 130000.0"] ;
1020 -> 1022 ;
1023 [label="mse = 0.0\nsamples = 1\nvalue = 130500.0"] ;
1022 -> 1023 ;
1024 [label="mse = 0.0\nsamples = 1\nvalue = 129500.0"] ;
1022 -> 1024 ;
1025 [label="mse = 0.0\nsamples = 1\nvalue = 125000.0"] ;
1019 -> 1025 ;
1026 [label="X[44] <= 0.5\nmse = 4400837.556\nsamples = 3\nvalue = 141295.667"] ;
1018 -> 1026 ;
1027 [label="X[94] <= 0.128\nmse = 1116192.25\nsamples = 2\nvalue = 139943.5"] ;
1026 -> 1027 ;
1028 [label="mse = 0.0\nsamples = 1\nvalue = 138887.0"] ;
1027 -> 1028 ;
1029 [label="mse = 0.0\nsamples = 1\nvalue = 141000.0"] ;
1027 -> 1029 ;
1030 [label="mse = 0.0\nsamples = 1\nvalue = 144000.0"] ;
1026 -> 1030 ;
1031 [label="mse = 0.0\nsamples = 1\nvalue = 148000.0"] ;
1017 -> 1031 ;
1032 [label="mse = 0.0\nsamples = 1\nvalue = 167500.0"] ;
1010 -> 1032 ;
1033 [label="mse = 0.0\nsamples = 1\nvalue = 178400.0"] ;
981 -> 1033 ;
1034 [label="X[84] <= -1.789\nmse = 717541799.308\nsamples = 17\nvalue = 162723.529"] ;
980 -> 1034 ;
1035 [label="X[94] <= 0.501\nmse = 351562500.0\nsamples = 2\nvalue = 195750.0"] ;
1034 -> 1035 ;
1036 [label="mse = 0.0\nsamples = 1\nvalue = 177000.0"] ;
1035 -> 1036 ;
1037 [label="mse = 0.0\nsamples = 1\nvalue = 214500.0"] ;
1035 -> 1037 ;
1038 [label="X[24] <= 0.5\nmse = 601514933.333\nsamples = 15\nvalue = 158320.0"] ;
1034 -> 1038 ;
1039 [label="X[66] <= 0.5\nmse = 478473017.751\nsamples = 13\nvalue = 163292.308"] ;
1038 -> 1039 ;
1040 [label="X[84] <= -0.066\nmse = 470648900.0\nsamples = 10\nvalue = 168890.0"] ;
1039 -> 1040 ;
1041 [label="X[94] <= -0.246\nmse = 144921875.0\nsamples = 4\nvalue = 180625.0"] ;
1040 -> 1041 ;
1042 [label="X[94] <= -0.993\nmse = 1562500.0\nsamples = 2\nvalue = 188750.0"] ;
1041 -> 1042 ;
1043 [label="mse = 0.0\nsamples = 1\nvalue = 190000.0"] ;
1042 -> 1043 ;
1044 [label="mse = 0.0\nsamples = 1\nvalue = 187500.0"] ;
1042 -> 1044 ;
1045 [label="X[31] <= 0.5\nmse = 156250000.0\nsamples = 2\nvalue = 172500.0"] ;
1041 -> 1045 ;
1046 [label="mse = 0.0\nsamples = 1\nvalue = 160000.0"] ;
1045 -> 1046 ;
1047 [label="mse = 0.0\nsamples = 1\nvalue = 185000.0"] ;
1045 -> 1047 ;
1048 [label="X[86] <= 0.232\nmse = 534788888.889\nsamples = 6\nvalue = 161066.667"] ;
1040 -> 1048 ;
1049 [label="X[93] <= -0.284\nmse = 417509600.0\nsamples = 5\nvalue = 167180.0"] ;
1048 -> 1049 ;
1050 [label="X[84] <= 0.314\nmse = 189062500.0\nsamples = 2\nvalue = 188750.0"] ;
1049 -> 1050 ;
1051 [label="mse = 0.0\nsamples = 1\nvalue = 175000.0"] ;
1050 -> 1051 ;
1052 [label="mse = 0.0\nsamples = 1\nvalue = 202500.0"] ;
1050 -> 1052 ;
1053 [label="X[26] <= 0.5\nmse = 52846666.667\nsamples = 3\nvalue = 152800.0"] ;
1049 -> 1053 ;
1054 [label="X[84] <= 0.083\nmse = 8702500.0\nsamples = 2\nvalue = 147950.0"] ;
1053 -> 1054 ;
1055 [label="mse = 0.0\nsamples = 1\nvalue = 145000.0"] ;
1054 -> 1055 ;
1056 [label="mse = 0.0\nsamples = 1\nvalue = 150900.0"] ;
1054 -> 1056 ;
1057 [label="mse = 0.0\nsamples = 1\nvalue = 162500.0"] ;
1053 -> 1057 ;
1058 [label="mse = 0.0\nsamples = 1\nvalue = 130500.0"] ;
1048 -> 1058 ;
1059 [label="X[89] <= 2.73\nmse = 51948888.889\nsamples = 3\nvalue = 144633.333"] ;
1039 -> 1059 ;
1060 [label="X[94] <= -0.246\nmse = 7840000.0\nsamples = 2\nvalue = 139800.0"] ;
1059 -> 1060 ;
1061 [label="mse = 0.0\nsamples = 1\nvalue = 137000.0"] ;
1060 -> 1061 ;
1062 [label="mse = 0.0\nsamples = 1\nvalue = 142600.0"] ;
1060 -> 1062 ;
1063 [label="mse = 0.0\nsamples = 1\nvalue = 154300.0"] ;
1059 -> 1063 ;
1064 [label="X[83] <= 1.733\nmse = 196000000.0\nsamples = 2\nvalue = 126000.0"] ;
1038 -> 1064 ;
1065 [label="mse = 0.0\nsamples = 1\nvalue = 112000.0"] ;
1064 -> 1065 ;
1066 [label="mse = 0.0\nsamples = 1\nvalue = 140000.0"] ;
1064 -> 1066 ;
1067 [label="X[85] <= -0.126\nmse = 3804892090.807\nsamples = 125\nvalue = 200397.448"] ;
963 -> 1067 ;
1068 [label="X[55] <= 0.5\nmse = 1719781572.283\nsamples = 60\nvalue = 170605.483"] ;
1067 -> 1068 ;
1069 [label="X[93] <= -0.284\nmse = 3099578327.209\nsamples = 14\nvalue = 202369.929"] ;
1068 -> 1069 ;
1070 [label="X[63] <= 0.5\nmse = 2657216392.776\nsamples = 7\nvalue = 236611.286"] ;
1069 -> 1070 ;
1071 [label="X[21] <= 0.5\nmse = 1190048883.472\nsamples = 6\nvalue = 253129.833"] ;
1070 -> 1071 ;
1072 [label="X[91] <= 1.684\nmse = 610360334.56\nsamples = 5\nvalue = 241455.8"] ;
1071 -> 1072 ;
1073 [label="X[67] <= 0.5\nmse = 575016875.0\nsamples = 4\nvalue = 235325.0"] ;
1072 -> 1073 ;
1074 [label="X[89] <= 0.274\nmse = 117722500.0\nsamples = 2\nvalue = 212650.0"] ;
1073 -> 1074 ;
1075 [label="mse = 0.0\nsamples = 1\nvalue = 223500.0"] ;
1074 -> 1075 ;
1076 [label="mse = 0.0\nsamples = 1\nvalue = 201800.0"] ;
1074 -> 1076 ;
1077 [label="X[89] <= -0.954\nmse = 4000000.0\nsamples = 2\nvalue = 258000.0"] ;
1073 -> 1077 ;
1078 [label="mse = 0.0\nsamples = 1\nvalue = 260000.0"] ;
1077 -> 1078 ;
1079 [label="mse = 0.0\nsamples = 1\nvalue = 256000.0"] ;
1077 -> 1079 ;
1080 [label="mse = 0.0\nsamples = 1\nvalue = 265979.0"] ;
1072 -> 1080 ;
1081 [label="mse = 0.0\nsamples = 1\nvalue = 311500.0"] ;
1071 -> 1081 ;
1082 [label="mse = 0.0\nsamples = 1\nvalue = 137500.0"] ;
1070 -> 1082 ;
1083 [label="X[90] <= 1.398\nmse = 1196999183.673\nsamples = 7\nvalue = 168128.571"] ;
1069 -> 1083 ;
1084 [label="X[82] <= 0.196\nmse = 1213812500.0\nsamples = 4\nvalue = 187250.0"] ;
1083 -> 1084 ;
1085 [label="X[62] <= 0.5\nmse = 342250000.0\nsamples = 2\nvalue = 156000.0"] ;
1084 -> 1085 ;
1086 [label="mse = 0.0\nsamples = 1\nvalue = 137500.0"] ;
1085 -> 1086 ;
1087 [label="mse = 0.0\nsamples = 1\nvalue = 174500.0"] ;
1085 -> 1087 ;
1088 [label="X[14] <= 0.5\nmse = 132250000.0\nsamples = 2\nvalue = 218500.0"] ;
1084 -> 1088 ;
1089 [label="mse = 0.0\nsamples = 1\nvalue = 207000.0"] ;
1088 -> 1089 ;
1090 [label="mse = 0.0\nsamples = 1\nvalue = 230000.0"] ;
1088 -> 1090 ;
1091 [label="X[10] <= 0.5\nmse = 37068888.889\nsamples = 3\nvalue = 142633.333"] ;
1083 -> 1091 ;
1092 [label="X[84] <= -0.249\nmse = 11902500.0\nsamples = 2\nvalue = 146450.0"] ;
1091 -> 1092 ;
1093 [label="mse = 0.0\nsamples = 1\nvalue = 149900.0"] ;
1092 -> 1093 ;
1094 [label="mse = 0.0\nsamples = 1\nvalue = 143000.0"] ;
1092 -> 1094 ;
1095 [label="mse = 0.0\nsamples = 1\nvalue = 135000.0"] ;
1091 -> 1095 ;
1096 [label="X[82] <= 1.612\nmse = 899303172.259\nsamples = 46\nvalue = 160938.043"] ;
1068 -> 1096 ;
1097 [label="X[71] <= 0.5\nmse = 745472207.02\nsamples = 41\nvalue = 156876.829"] ;
1096 -> 1097 ;
1098 [label="X[87] <= -1.73\nmse = 662005310.938\nsamples = 40\nvalue = 155298.75"] ;
1097 -> 1098 ;
1099 [label="X[12] <= 0.5\nmse = 756250000.0\nsamples = 2\nvalue = 207500.0"] ;
1098 -> 1099 ;
1100 [label="mse = 0.0\nsamples = 1\nvalue = 235000.0"] ;
1099 -> 1100 ;
1101 [label="mse = 0.0\nsamples = 1\nvalue = 180000.0"] ;
1099 -> 1101 ;
1102 [label="X[93] <= -1.755\nmse = 506077169.321\nsamples = 38\nvalue = 152551.316"] ;
1098 -> 1102 ;
1103 [label="X[94] <= 1.248\nmse = 280562500.0\nsamples = 2\nvalue = 114250.0"] ;
1102 -> 1103 ;
1104 [label="mse = 0.0\nsamples = 1\nvalue = 131000.0"] ;
1103 -> 1104 ;
1105 [label="mse = 0.0\nsamples = 1\nvalue = 97500.0"] ;
1103 -> 1105 ;
1106 [label="X[41] <= 0.5\nmse = 432578524.306\nsamples = 36\nvalue = 154679.167"] ;
1102 -> 1106 ;
1107 [label="X[91] <= -1.724\nmse = 363879137.111\nsamples = 34\nvalue = 152407.353"] ;
1106 -> 1107 ;
1108 [label="mse = 0.0\nsamples = 1\nvalue = 108000.0"] ;
1107 -> 1108 ;
1109 [label="X[93] <= 1.922\nmse = 313336960.514\nsamples = 33\nvalue = 153753.03"] ;
1107 -> 1109 ;
1110 [label="X[94] <= 0.501\nmse = 234174021.852\nsamples = 31\nvalue = 151753.226"] ;
1109 -> 1110 ;
1111 [label="X[40] <= 0.5\nmse = 162747891.156\nsamples = 21\nvalue = 156164.286"] ;
1110 -> 1111 ;
1112 [label="X[83] <= -0.958\nmse = 127963598.616\nsamples = 17\nvalue = 153408.824"] ;
1111 -> 1112 ;
1113 [label="mse = 0.0\nsamples = 1\nvalue = 170000.0"] ;
1112 -> 1113 ;
1114 [label="X[86] <= 0.232\nmse = 117681865.234\nsamples = 16\nvalue = 152371.875"] ;
1112 -> 1114 ;
1115 [label="X[83] <= -0.061\nmse = 92080246.914\nsamples = 9\nvalue = 147794.444"] ;
1114 -> 1115 ;
1116 [label="X[58] <= 0.5\nmse = 87204648.438\nsamples = 8\nvalue = 149143.75"] ;
1115 -> 1116 ;
1117 [label="X[12] <= 0.5\nmse = 5882400.0\nsamples = 5\nvalue = 142240.0"] ;
1116 -> 1117 ;
1118 [label="X[91] <= -0.36\nmse = 855000.0\nsamples = 4\nvalue = 141100.0"] ;
1117 -> 1118 ;
1119 [label="X[60] <= 0.5\nmse = 268888.889\nsamples = 3\nvalue = 140633.333"] ;
1118 -> 1119 ;
1120 [label="mse = 0.0\nsamples = 1\nvalue = 141000.0"] ;
1119 -> 1120 ;
1121 [label="X[94] <= -0.993\nmse = 302500.0\nsamples = 2\nvalue = 140450.0"] ;
1119 -> 1121 ;
1122 [label="mse = 0.0\nsamples = 1\nvalue = 141000.0"] ;
1121 -> 1122 ;
1123 [label="mse = 0.0\nsamples = 1\nvalue = 139900.0"] ;
1121 -> 1123 ;
1124 [label="mse = 0.0\nsamples = 1\nvalue = 142500.0"] ;
1118 -> 1124 ;
1125 [label="mse = 0.0\nsamples = 1\nvalue = 146800.0"] ;
1117 -> 1125 ;
1126 [label="X[82] <= 0.277\nmse = 10911666.667\nsamples = 3\nvalue = 160650.0"] ;
1116 -> 1126 ;
1127 [label="mse = 0.0\nsamples = 1\nvalue = 165000.0"] ;
1126 -> 1127 ;
1128 [label="X[79] <= 0.5\nmse = 2175625.0\nsamples = 2\nvalue = 158475.0"] ;
1126 -> 1128 ;
1129 [label="mse = 0.0\nsamples = 1\nvalue = 157000.0"] ;
1128 -> 1129 ;
1130 [label="mse = 0.0\nsamples = 1\nvalue = 159950.0"] ;
1128 -> 1130 ;
1131 [label="mse = 0.0\nsamples = 1\nvalue = 137000.0"] ;
1115 -> 1131 ;
1132 [label="X[90] <= 1.398\nmse = 89022448.98\nsamples = 7\nvalue = 158257.143"] ;
1114 -> 1132 ;
1133 [label="X[82] <= 0.335\nmse = 69874400.0\nsamples = 5\nvalue = 154360.0"] ;
1132 -> 1133 ;
1134 [label="X[60] <= 0.5\nmse = 29202500.0\nsamples = 4\nvalue = 150950.0"] ;
1133 -> 1134 ;
1135 [label="X[84] <= -0.182\nmse = 16846666.667\nsamples = 3\nvalue = 153300.0"] ;
1134 -> 1135 ;
1136 [label="X[66] <= 0.5\nmse = 8702500.0\nsamples = 2\nvalue = 150950.0"] ;
1135 -> 1136 ;
1137 [label="mse = 0.0\nsamples = 1\nvalue = 148000.0"] ;
1136 -> 1137 ;
1138 [label="mse = 0.0\nsamples = 1\nvalue = 153900.0"] ;
1136 -> 1138 ;
1139 [label="mse = 0.0\nsamples = 1\nvalue = 158000.0"] ;
1135 -> 1139 ;
1140 [label="mse = 0.0\nsamples = 1\nvalue = 143900.0"] ;
1134 -> 1140 ;
1141 [label="mse = 0.0\nsamples = 1\nvalue = 168000.0"] ;
1133 -> 1141 ;
1142 [label="X[51] <= 0.5\nmse = 4000000.0\nsamples = 2\nvalue = 168000.0"] ;
1132 -> 1142 ;
1143 [label="mse = 0.0\nsamples = 1\nvalue = 166000.0"] ;
1142 -> 1143 ;
1144 [label="mse = 0.0\nsamples = 1\nvalue = 170000.0"] ;
1142 -> 1144 ;
1145 [label="X[14] <= 0.5\nmse = 141171875.0\nsamples = 4\nvalue = 167875.0"] ;
1111 -> 1145 ;
1146 [label="X[89] <= 0.274\nmse = 4000000.0\nsamples = 2\nvalue = 178500.0"] ;
1145 -> 1146 ;
1147 [label="mse = 0.0\nsamples = 1\nvalue = 176500.0"] ;
1146 -> 1147 ;
1148 [label="mse = 0.0\nsamples = 1\nvalue = 180500.0"] ;
1146 -> 1148 ;
1149 [label="X[69] <= 0.5\nmse = 52562500.0\nsamples = 2\nvalue = 157250.0"] ;
1145 -> 1149 ;
1150 [label="mse = 0.0\nsamples = 1\nvalue = 164500.0"] ;
1149 -> 1150 ;
1151 [label="mse = 0.0\nsamples = 1\nvalue = 150000.0"] ;
1149 -> 1151 ;
1152 [label="X[40] <= 0.5\nmse = 257500900.0\nsamples = 10\nvalue = 142490.0"] ;
1110 -> 1152 ;
1153 [label="X[69] <= 0.5\nmse = 223360000.0\nsamples = 5\nvalue = 133300.0"] ;
1152 -> 1153 ;
1154 [label="mse = 0.0\nsamples = 1\nvalue = 158000.0"] ;
1153 -> 1154 ;
1155 [label="X[78] <= 0.5\nmse = 88546875.0\nsamples = 4\nvalue = 127125.0"] ;
1153 -> 1155 ;
1156 [label="X[62] <= 0.5\nmse = 52722222.222\nsamples = 3\nvalue = 131166.667"] ;
1155 -> 1156 ;
1157 [label="mse = 0.0\nsamples = 1\nvalue = 121500.0"] ;
1156 -> 1157 ;
1158 [label="X[44] <= 0.5\nmse = 9000000.0\nsamples = 2\nvalue = 136000.0"] ;
1156 -> 1158 ;
1159 [label="mse = 0.0\nsamples = 1\nvalue = 133000.0"] ;
1158 -> 1159 ;
1160 [label="mse = 0.0\nsamples = 1\nvalue = 139000.0"] ;
1158 -> 1160 ;
1161 [label="mse = 0.0\nsamples = 1\nvalue = 115000.0"] ;
1155 -> 1161 ;
1162 [label="X[84] <= -0.0\nmse = 122729600.0\nsamples = 5\nvalue = 151680.0"] ;
1152 -> 1162 ;
1163 [label="X[69] <= 0.5\nmse = 50126875.0\nsamples = 4\nvalue = 156225.0"] ;
1162 -> 1163 ;
1164 [label="X[16] <= 0.5\nmse = 62500.0\nsamples = 2\nvalue = 149250.0"] ;
1163 -> 1164 ;
1165 [label="mse = 0.0\nsamples = 1\nvalue = 149000.0"] ;
1164 -> 1165 ;
1166 [label="mse = 0.0\nsamples = 1\nvalue = 149500.0"] ;
1164 -> 1166 ;
1167 [label="X[83] <= 0.388\nmse = 2890000.0\nsamples = 2\nvalue = 163200.0"] ;
1163 -> 1167 ;
1168 [label="mse = 0.0\nsamples = 1\nvalue = 161500.0"] ;
1167 -> 1168 ;
1169 [label="mse = 0.0\nsamples = 1\nvalue = 164900.0"] ;
1167 -> 1169 ;
1170 [label="mse = 0.0\nsamples = 1\nvalue = 133500.0"] ;
1162 -> 1170 ;
1171 [label="X[7] <= 0.5\nmse = 517562500.0\nsamples = 2\nvalue = 184750.0"] ;
1109 -> 1171 ;
1172 [label="mse = 0.0\nsamples = 1\nvalue = 162000.0"] ;
1171 -> 1172 ;
1173 [label="mse = 0.0\nsamples = 1\nvalue = 207500.0"] ;
1171 -> 1173 ;
1174 [label="X[47] <= 0.5\nmse = 21160000.0\nsamples = 2\nvalue = 193300.0"] ;
1106 -> 1174 ;
1175 [label="mse = 0.0\nsamples = 1\nvalue = 197900.0"] ;
1174 -> 1175 ;
1176 [label="mse = 0.0\nsamples = 1\nvalue = 188700.0"] ;
1174 -> 1176 ;
1177 [label="mse = 0.0\nsamples = 1\nvalue = 220000.0"] ;
1097 -> 1177 ;
1178 [label="X[62] <= 0.5\nmse = 916450400.0\nsamples = 5\nvalue = 194240.0"] ;
1096 -> 1178 ;
1179 [label="X[86] <= 0.232\nmse = 125175555.556\nsamples = 3\nvalue = 171566.667"] ;
1178 -> 1179 ;
1180 [label="X[0] <= 0.5\nmse = 16000000.0\nsamples = 2\nvalue = 164000.0"] ;
1179 -> 1180 ;
1181 [label="mse = 0.0\nsamples = 1\nvalue = 168000.0"] ;
1180 -> 1181 ;
1182 [label="mse = 0.0\nsamples = 1\nvalue = 160000.0"] ;
1180 -> 1182 ;
1183 [label="mse = 0.0\nsamples = 1\nvalue = 186700.0"] ;
1179 -> 1183 ;
1184 [label="X[13] <= 0.5\nmse = 175562500.0\nsamples = 2\nvalue = 228250.0"] ;
1178 -> 1184 ;
1185 [label="mse = 0.0\nsamples = 1\nvalue = 215000.0"] ;
1184 -> 1185 ;
1186 [label="mse = 0.0\nsamples = 1\nvalue = 241500.0"] ;
1184 -> 1186 ;
1187 [label="X[91] <= 1.003\nmse = 4154057139.8\nsamples = 65\nvalue = 227897.723"] ;
1067 -> 1187 ;
1188 [label="X[90] <= 1.398\nmse = 2903866259.489\nsamples = 61\nvalue = 220054.951"] ;
1187 -> 1188 ;
1189 [label="X[89] <= 1.195\nmse = 1892598113.381\nsamples = 42\nvalue = 201881.0"] ;
1188 -> 1189 ;
1190 [label="X[94] <= -0.246\nmse = 1420570757.462\nsamples = 30\nvalue = 185616.733"] ;
1189 -> 1190 ;
1191 [label="X[13] <= 0.5\nmse = 1155667224.931\nsamples = 19\nvalue = 200324.737"] ;
1190 -> 1191 ;
1192 [label="X[82] <= 0.46\nmse = 624373079.585\nsamples = 17\nvalue = 191952.941"] ;
1191 -> 1192 ;
1193 [label="X[82] <= 0.249\nmse = 279481388.889\nsamples = 12\nvalue = 182683.333"] ;
1192 -> 1193 ;
1194 [label="X[42] <= 0.5\nmse = 222356543.21\nsamples = 9\nvalue = 188411.111"] ;
1193 -> 1194 ;
1195 [label="X[44] <= 0.5\nmse = 127131388.889\nsamples = 6\nvalue = 196216.667"] ;
1194 -> 1195 ;
1196 [label="mse = 0.0\nsamples = 1\nvalue = 217500.0"] ;
1195 -> 1196 ;
1197 [label="X[93] <= -0.836\nmse = 43842400.0\nsamples = 5\nvalue = 191960.0"] ;
1195 -> 1197 ;
1198 [label="mse = 0.0\nsamples = 1\nvalue = 179900.0"] ;
1197 -> 1198 ;
1199 [label="X[17] <= 0.5\nmse = 9351875.0\nsamples = 4\nvalue = 194975.0"] ;
1197 -> 1199 ;
1200 [label="X[89] <= 0.581\nmse = 1468888.889\nsamples = 3\nvalue = 196633.333"] ;
1199 -> 1200 ;
1201 [label="X[83] <= 0.836\nmse = 202500.0\nsamples = 2\nvalue = 197450.0"] ;
1200 -> 1201 ;
1202 [label="mse = 0.0\nsamples = 1\nvalue = 197000.0"] ;
1201 -> 1202 ;
1203 [label="mse = 0.0\nsamples = 1\nvalue = 197900.0"] ;
1201 -> 1203 ;
1204 [label="mse = 0.0\nsamples = 1\nvalue = 195000.0"] ;
1200 -> 1204 ;
1205 [label="mse = 0.0\nsamples = 1\nvalue = 190000.0"] ;
1199 -> 1205 ;
1206 [label="X[94] <= -0.993\nmse = 47246666.667\nsamples = 3\nvalue = 172800.0"] ;
1194 -> 1206 ;
1207 [label="mse = 0.0\nsamples = 1\nvalue = 179900.0"] ;
1206 -> 1207 ;
1208 [label="X[82] <= 0.164\nmse = 33062500.0\nsamples = 2\nvalue = 169250.0"] ;
1206 -> 1208 ;
1209 [label="mse = 0.0\nsamples = 1\nvalue = 163500.0"] ;
1208 -> 1209 ;
1210 [label="mse = 0.0\nsamples = 1\nvalue = 175000.0"] ;
1208 -> 1210 ;
1211 [label="X[69] <= 0.5\nmse = 57166666.667\nsamples = 3\nvalue = 165500.0"] ;
1193 -> 1211 ;
1212 [label="mse = 0.0\nsamples = 1\nvalue = 155000.0"] ;
1211 -> 1212 ;
